#include"a1_1.hpp"
#ifdef solution1
// interfcae for LSDNN IP declaration  
void lsdnn1(hls::stream<axis_data> &A,hls::stream<axis_data> &C)
{
#pragma HLS INTERFACE ap_ctrl_none port=return
	#pragma HLS INTERFACE axis register both port=C
	#pragma HLS INTERFACE axis register both port=A
	// IP input and output port declaration  
	// Layer 1 weight data 
	float L1_weight[104][52]={{-0.015024,-0.020125,0.062548,-0.209052,0.001303,-0.093407,-0.095769,0.140789,-0.089020,0.369005,0.065134,-0.080883,0.074207,-0.084732,-0.100752,-0.017707,0.169079,-0.014726,0.033771,0.097860,-0.160482,-0.030349,0.043849,-0.155106,0.040435,0.021126,-0.019242,-0.154128,-0.259217,0.140436,0.196027,0.150711,0.132677,0.070060,-0.053665,-0.225550,0.207185,0.019757,-0.044558,-0.111246,0.057533,0.017722,0.137138,0.008698,-0.099814,0.069659,-0.053882,-0.002931,-0.082061,0.067299,0.017814,-0.405088},
	{0.026195,-0.006013,0.164221,-0.061093,0.096612,0.117792,-0.108349,0.000775,0.102624,0.260808,-0.122128,0.130281,0.099310,-0.068248,-0.001646,0.009816,-0.053468,-0.055470,-0.081308,-0.036451,-0.108382,0.048402,0.010808,0.063771,-0.074716,0.135760,-0.029462,-0.230350,0.040669,0.044669,-0.085563,-0.003821,0.259283,0.003545,-0.022249,-0.365506,0.328705,0.039468,-0.167640,-0.120778,-0.037806,-0.100205,-0.114788,0.162434,0.032613,0.132759,-0.245442,0.009698,0.080342,-0.050115,-0.022859,-0.239686},
	{0.024363,-0.002769,-0.034813,0.129352,-0.046756,0.156006,0.043518,-0.164260,0.260688,0.041098,-0.037843,0.006352,0.143161,-0.056909,0.131386,-0.069716,-0.168285,0.058776,0.018855,-0.025814,0.033427,0.027266,-0.108354,0.074290,-0.152619,0.119357,0.030377,-0.049976,0.214231,-0.007621,-0.227361,0.031487,0.268382,0.010964,-0.036708,-0.235070,0.166821,0.059304,-0.219173,-0.045809,-0.125955,-0.040816,-0.073943,0.206052,0.082602,0.078560,-0.251506,0.009054,0.050483,-0.150358,-0.099962,0.081213},
	{-0.046884,0.029311,-0.210689,0.175191,-0.042261,0.130268,-0.035298,-0.247299,0.051287,-0.173492,0.080312,0.115773,0.060664,0.137025,0.112020,-0.079508,-0.168703,-0.044146,0.030451,-0.081393,0.202647,0.049292,-0.044797,0.016961,-0.137170,0.039389,-0.039693,0.046452,0.034776,-0.077826,-0.093390,-0.164861,0.179852,0.059275,-0.002332,0.053916,-0.081139,0.106843,-0.142831,-0.014453,-0.009183,-0.059035,0.027063,0.095591,0.242820,-0.134489,-0.239035,0.051450,0.081528,-0.200756,-0.127915,0.241499},
	{0.030705,-0.092718,-0.090341,0.191699,0.083558,-0.112764,-0.021961,-0.099582,-0.121155,-0.292601,0.088881,-0.053302,-0.136877,0.050511,0.024343,-0.087859,-0.074315,0.094809,0.172874,0.068246,0.140403,0.053944,-0.015792,-0.024513,0.021803,-0.010975,0.015013,0.172803,-0.196844,-0.082818,0.050398,-0.125933,0.049962,0.052981,-0.062919,0.165863,-0.228000,0.031040,0.208888,0.024678,-0.071528,0.012821,0.047007,-0.011043,0.112190,-0.163903,0.001764,0.045849,-0.015670,0.009603,-0.217566,0.224936},
	{-0.040068,-0.017938,-0.021135,0.198919,-0.007251,-0.144573,0.050132,0.162479,-0.049702,-0.026817,0.119304,-0.114476,-0.161124,0.069599,-0.075528,0.148405,0.070444,0.040350,0.105153,0.028161,0.039505,0.068083,-0.018702,-0.043427,0.160508,-0.009755,-0.017559,0.084491,-0.119402,0.003803,0.114665,-0.018438,-0.241198,-0.141697,0.071273,0.144239,-0.151065,-0.013594,0.194305,0.002079,0.031739,0.023531,0.035780,-0.065220,-0.154926,-0.011679,0.040317,0.079187,-0.121113,0.048359,-0.056788,0.108357},
	{-0.019149,0.056728,0.156883,0.163882,0.087709,-0.134842,0.074522,0.157132,-0.069656,0.258255,-0.044547,-0.004101,-0.179698,0.037399,-0.107676,0.100153,0.058898,-0.021311,-0.042820,0.082776,-0.052560,0.039869,0.055170,-0.127290,0.192118,0.012701,0.000722,-0.043693,-0.073445,0.107811,0.060064,0.002935,-0.253067,-0.107441,-0.029392,0.032271,0.017865,-0.047713,0.050243,0.020567,0.001282,-0.033711,0.097230,-0.136419,-0.241925,0.029800,0.128527,0.048907,-0.045182,0.113839,0.022506,-0.287228},
	{-0.043764,0.017795,0.296891,-0.059715,-0.014967,0.121789,0.082084,0.152532,-0.007658,0.185132,-0.082987,-0.000700,0.027242,0.019641,0.009554,0.109929,-0.090741,-0.008399,-0.197038,0.075484,-0.138009,-0.061507,0.025776,0.059849,-0.073473,0.171057,0.022881,-0.062130,0.206440,-0.046513,-0.225721,-0.068336,-0.273335,-0.082844,-0.035993,-0.205678,0.078924,0.034736,0.042579,-0.055727,0.043673,-0.012355,-0.124475,-0.010437,-0.145189,0.057412,0.188370,-0.012665,0.135745,-0.053242,0.014518,-0.180813},
	{0.029724,-0.004467,0.087464,-0.135978,-0.004731,0.083206,0.008936,0.074249,0.077061,0.011341,-0.040367,-0.048308,0.193547,-0.164024,0.096102,-0.190200,-0.166776,-0.034518,-0.139565,0.068661,-0.114639,-0.011992,-0.035231,0.171948,-0.228876,0.029542,0.054436,-0.011428,0.173549,0.022673,-0.128279,0.176230,-0.152184,0.155766,0.025757,-0.179177,0.179397,-0.002660,-0.176436,-0.010881,-0.020998,-0.036297,-0.099537,-0.007524,0.001409,0.014039,0.099893,-0.010062,-0.004694,-0.061840,0.219399,-0.077115},
	{0.018255,0.078728,-0.075891,-0.236336,-0.064761,0.159260,0.007698,-0.209415,0.003815,-0.217151,0.068238,0.036576,0.153411,-0.078578,0.076057,-0.158675,-0.169267,0.026663,-0.176440,0.054078,-0.011306,0.047040,0.021694,-0.005045,-0.165535,-0.117056,-0.093985,0.163665,0.008851,-0.040313,-0.169653,0.049915,-0.035722,0.270013,0.021013,-0.047867,-0.028016,-0.025776,-0.140324,0.060583,-0.057789,-0.050596,0.001697,-0.052556,0.094914,-0.192415,0.139734,0.017284,0.018947,0.038818,0.169774,0.229767},
	{-0.064050,-0.071917,-0.119473,-0.188612,0.021232,0.107577,-0.080027,-0.159796,0.020791,-0.258109,0.143579,0.002371,0.121642,-0.036565,0.070473,-0.025269,0.059880,0.031639,-0.052421,0.028762,0.167708,-0.016050,-0.057254,-0.017245,-0.019807,-0.128109,-0.009624,0.093061,-0.144208,-0.025167,0.218333,0.077426,0.025573,0.009767,0.004282,0.021782,-0.006617,-0.046852,-0.146490,0.012309,0.035712,0.007293,0.028907,-0.020965,0.206306,-0.098447,-0.011355,-0.006879,-0.109263,-0.055582,0.085669,0.258341},
	{0.038278,-0.034317,-0.152697,-0.191379,-0.057038,-0.159178,0.026553,-0.140363,0.030509,-0.124178,-0.034620,-0.027158,-0.032009,0.037399,-0.094152,0.152531,0.175336,0.040880,0.072221,0.003461,0.080285,-0.054742,0.130117,-0.053751,0.164243,0.021274,-0.048617,-0.075439,-0.244697,-0.027083,0.229253,-0.067118,0.149602,-0.132398,-0.070689,0.172870,-0.064543,-0.039828,-0.103456,-0.019867,0.083645,0.081394,0.052234,0.036744,0.100550,0.080335,-0.065902,-0.002912,-0.012399,-0.034802,-0.133941,0.128876},
	{-0.017298,0.010126,0.060758,0.024251,0.011754,-0.209234,-0.071303,-0.005760,0.041755,0.118978,-0.067156,0.032140,-0.046509,0.039754,-0.052849,0.329917,0.111691,0.017710,0.131811,0.075394,-0.102749,0.051026,0.065261,-0.079285,0.250584,0.047579,0.081244,-0.242672,-0.014901,0.087572,-0.064980,-0.015430,0.166199,-0.379940,-0.005582,0.049413,-0.027283,-0.049175,0.056807,-0.119298,0.075127,-0.079697,-0.077490,0.138959,0.064118,0.268224,-0.105075,0.013112,0.005901,0.041243,-0.243949,-0.113594},
	{-0.062629,0.014564,0.092158,0.093981,0.079923,0.068692,-0.083722,0.129122,-0.026232,0.123424,-0.065613,0.032876,-0.195135,0.130684,0.015853,0.147914,-0.003309,0.045083,0.230149,-0.016851,-0.128078,0.060040,-0.019452,-0.027065,0.022854,0.027886,0.057199,-0.186567,0.208377,0.036813,-0.280782,-0.113116,0.261410,-0.180308,-0.071495,0.072180,0.046168,0.018374,0.140803,0.033553,-0.084487,-0.081098,-0.101023,0.198631,-0.154428,0.104358,-0.217672,-0.082502,0.105407,-0.005319,-0.127476,-0.193935},
	{-0.000296,-0.054901,0.001586,0.122355,-0.106452,0.207706,-0.066204,0.193308,0.036457,0.099981,0.032327,0.162989,-0.151424,0.132880,0.157887,-0.212606,-0.112828,0.002356,0.059226,-0.133032,-0.133117,-0.038092,0.023137,0.138285,-0.160141,-0.045343,0.029863,0.075493,0.203677,-0.063226,-0.203307,-0.067585,0.214558,0.180892,0.011768,-0.066901,0.044380,-0.019624,0.048387,0.046360,-0.086404,-0.060380,-0.040007,0.082578,-0.128492,0.048143,-0.188182,-0.065914,0.082158,-0.031058,-0.008421,-0.071441},
	{0.025607,0.011509,-0.067271,0.304876,0.075132,0.305852,-0.035503,0.091702,0.020663,-0.071075,0.066165,0.012296,0.035418,0.025636,0.126568,-0.275033,-0.144627,-0.008840,-0.197448,-0.045548,0.015759,-0.023434,-0.051502,0.048266,-0.331301,-0.054613,-0.038369,0.248609,0.016213,-0.087807,-0.002269,-0.026301,-0.078919,0.270479,0.022279,-0.010255,0.002610,-0.050038,0.098320,0.123713,-0.157194,-0.021177,-0.020641,-0.002566,-0.129166,-0.147421,-0.003373,-0.020304,0.051681,0.009737,0.044237,0.076584},
	{0.039673,-0.063036,-0.161975,0.245569,0.011900,0.065431,-0.020231,0.006617,-0.023696,-0.242493,0.070070,-0.045966,0.058279,0.090877,0.039411,-0.114916,-0.040132,-0.064380,-0.129206,-0.093486,0.199758,0.052016,0.064436,-0.006833,-0.031375,-0.094558,0.096863,0.046004,-0.262011,0.005571,0.147962,-0.084170,-0.238619,0.044464,-0.050860,-0.000885,0.034368,-0.043976,-0.016169,0.047486,-0.033011,0.030775,0.080019,-0.156088,-0.079672,-0.174776,0.098085,-0.006148,-0.072532,-0.039160,0.177680,0.272281},
	{-0.043620,0.056213,-0.206653,0.097330,0.040361,-0.090252,0.033527,-0.064805,-0.088717,-0.075470,-0.028901,-0.116438,0.099148,-0.010645,-0.051601,0.147613,0.118302,0.032877,-0.165370,0.069090,0.190174,0.085124,-0.001676,-0.003448,0.159183,0.057077,-0.050972,0.000496,-0.083347,0.051306,0.097828,-0.002501,-0.284431,-0.209933,-0.028852,0.055468,-0.041570,-0.063952,-0.145902,-0.053424,0.046551,0.088597,0.048023,-0.156817,0.168328,0.110515,0.190170,0.060628,-0.047522,0.062717,0.246955,0.062878},
	{-0.048009,-0.032256,-0.049800,-0.097150,0.070943,-0.263004,0.027628,-0.168232,-0.153816,0.151127,-0.054404,-0.090428,0.057950,-0.046517,-0.091709,0.130661,0.062784,-0.024103,0.005962,0.055477,0.068994,0.018897,-0.016486,-0.020593,0.261792,0.138867,0.018308,-0.021067,0.026359,0.098407,0.028022,0.079594,-0.139127,-0.274759,0.000688,0.071320,-0.047922,-0.064848,-0.093401,-0.036347,-0.006180,0.109902,-0.038717,-0.072238,0.217818,0.021954,0.268701,-0.033302,0.105538,-0.001965,-0.067189,-0.147216},
	{0.034631,-0.047161,0.069250,-0.155514,-0.004078,-0.113438,0.030655,-0.026187,-0.170700,0.234834,-0.026610,-0.004005,0.033657,-0.036262,-0.025410,0.163755,-0.083804,0.007105,0.115764,-0.009997,-0.130030,-0.074182,-0.050378,0.083844,0.124700,0.009073,-0.058154,-0.019067,0.200579,-0.039321,-0.212469,0.092717,-0.105001,-0.152539,0.098739,0.139114,-0.132351,0.071206,0.002502,0.009777,0.041063,0.024553,-0.150238,-0.063687,0.063256,0.063052,0.179089,-0.092774,0.079325,0.144215,-0.090942,-0.121799},
	{-0.035285,0.027721,0.250405,-0.159917,-0.013729,0.044540,0.028858,-0.113683,0.029531,0.055201,0.026350,0.092232,0.019200,-0.057223,0.113965,-0.304399,-0.029780,0.050760,0.173851,0.070783,-0.253861,-0.029736,0.011419,0.037822,-0.017620,-0.125003,-0.014030,0.094212,0.174928,-0.027823,-0.068466,0.069261,0.047128,0.285030,0.064327,0.107729,-0.143166,-0.059860,0.076626,0.032034,-0.087499,0.029368,-0.015977,-0.060063,0.082881,-0.114296,0.020727,0.020147,-0.070546,0.059140,-0.166927,-0.016611},
	{0.070655,-0.033992,0.244389,-0.102444,0.044338,0.079851,0.026225,0.019550,0.165116,-0.107293,0.068033,-0.079261,0.012008,-0.050827,-0.003362,-0.288177,0.008358,0.058403,0.192175,0.042504,-0.216049,0.016608,-0.016437,-0.019882,-0.197294,-0.058721,-0.015576,0.078968,-0.149552,0.041115,0.025881,0.164759,-0.006115,0.293901,0.038110,-0.107881,0.128150,-0.069341,0.036278,0.042880,-0.036768,-0.088762,0.104834,-0.051692,-0.096302,-0.110549,0.026133,0.009183,-0.072148,-0.270943,-0.155387,0.156285},
	{-0.010504,-0.071645,-0.058191,-0.248528,-0.000130,0.051971,-0.030552,0.129457,0.321175,-0.191008,0.097009,-0.001114,0.029821,0.070595,-0.206293,-0.075963,0.150784,-0.042632,0.105372,0.023819,-0.004029,0.095088,-0.034010,-0.116705,0.014559,-0.008756,-0.115677,-0.016773,-0.329805,0.044948,0.281421,-0.038264,0.101113,0.044322,0.005779,-0.303898,0.238704,-0.030403,-0.037842,-0.153600,0.123043,0.035060,0.123581,-0.009724,-0.100043,-0.064073,0.025148,0.037885,-0.182229,-0.237762,-0.094317,0.138569},
	{0.068149,0.003517,-0.161297,-0.253670,-0.040693,0.017312,0.048155,0.095466,0.187490,-0.075674,-0.087600,-0.066532,0.039920,0.042040,-0.209713,0.371619,0.152634,-0.019926,-0.151253,0.067003,0.105036,-0.025001,0.134886,-0.037674,-0.052550,0.091699,-0.071688,-0.261124,-0.222101,0.183441,0.266851,-0.095354,0.274993,-0.383394,-0.025158,-0.390612,0.350994,-0.049202,-0.027541,-0.054279,0.168562,0.006726,-0.079736,0.112302,-0.066505,0.291124,-0.115534,0.050625,-0.032230,-0.243666,0.072728,0.108511},
	{0.044224,-0.026698,-0.253509,-0.071902,-0.007927,0.068891,-0.056956,0.029763,-0.113207,0.100600,-0.157070,-0.027433,0.068197,0.155548,-0.101414,0.407193,0.061160,0.023153,-0.116343,-0.073628,0.269934,-0.013473,-0.076069,-0.078885,-0.067759,0.118077,0.061015,-0.186450,0.107427,0.054810,-0.225676,-0.060137,0.446419,-0.456760,-0.022098,-0.129653,0.092292,0.024233,-0.102457,0.036700,0.087924,-0.049059,-0.195872,0.217486,-0.115413,0.244654,-0.386998,-0.058007,0.171398,0.096516,0.131283,0.002643},
	{0.110628,0.003564,-0.230415,0.180055,0.009064,0.067384,-0.056168,0.018929,-0.410193,0.070288,0.024749,0.160347,0.076009,0.148361,0.204365,0.039105,-0.234564,0.070604,-0.083814,-0.131206,0.268428,0.102110,-0.060916,0.035939,-0.036443,-0.023040,0.018119,-0.046912,0.531115,-0.148103,-0.504999,-0.127647,0.506802,-0.052617,0.018182,0.231560,-0.169515,0.120456,0.024696,0.041063,0.046845,0.000706,-0.189815,0.213363,0.073459,0.029374,-0.467911,-0.003662,0.121300,0.443644,0.065982,-0.073941},
	{-0.000446,0.090088,0.018056,0.073410,0.073575,0.249491,0.025760,-0.017123,0.246089,-0.041489,-0.122571,-0.086914,-0.096294,-0.235014,0.089736,0.526911,0.032704,-0.051060,0.147860,0.019870,0.019271,0.101969,-0.017785,0.143387,-0.246404,0.147752,-0.004128,-0.164171,0.101901,0.092404,-0.047624,0.104610,-0.453874,-0.569665,-0.083031,-0.427712,0.426684,-0.005167,0.109774,-0.045894,0.033022,0.071494,-0.223446,-0.059417,0.046458,0.155756,0.362684,-0.018455,0.221931,-0.193229,-0.055384,0.062904},
	{-0.028721,0.029930,-0.307377,-0.142512,-0.040422,0.312613,-0.001495,0.168486,0.033185,-0.048909,-0.044626,-0.084643,-0.081155,-0.007329,0.099969,0.233849,-0.151470,0.030350,0.125032,-0.005471,0.302938,-0.007735,-0.107927,0.057514,-0.320147,0.048941,-0.007650,0.061783,0.167221,-0.084468,-0.317622,0.091432,-0.289648,-0.254973,0.031638,-0.273488,0.141971,0.088427,0.030276,0.036370,-0.046245,0.080353,-0.282078,-0.030138,-0.092363,-0.053014,0.294494,0.024121,0.154260,-0.022593,-0.198602,-0.053262},
	{-0.025483,-0.036906,-0.447579,-0.229146,-0.014844,0.109213,0.034155,0.174970,-0.219229,0.116044,0.019861,-0.001118,0.047194,0.148208,0.136261,-0.022225,-0.134390,0.036969,0.063814,-0.060923,0.388342,0.032920,-0.055364,0.082517,-0.042840,-0.006292,-0.070786,0.100740,0.227204,-0.115247,-0.201416,-0.071749,-0.290558,0.115547,0.142509,0.114290,-0.093833,-0.014631,-0.061590,0.116704,-0.052257,0.072565,-0.179604,-0.077529,-0.187682,-0.137089,0.119916,0.030475,0.080491,0.206604,-0.067683,-0.032095},
	{-0.047426,-0.035899,-0.226865,-0.217888,-0.005920,-0.273859,0.090429,0.212006,-0.076243,0.085940,0.050430,-0.128737,0.279096,0.140273,-0.030220,-0.217030,0.087157,0.061423,0.054879,0.025772,0.129871,-0.016346,-0.042662,-0.057689,0.154015,-0.033946,-0.037067,0.180016,0.061620,-0.049425,-0.039044,-0.178816,0.031208,0.237178,0.046107,0.287095,-0.300619,-0.050267,-0.213367,-0.040859,-0.013933,-0.006018,0.078874,-0.173772,-0.129600,-0.124589,0.098511,-0.013466,-0.016387,0.134890,0.026557,-0.099427},
	{0.027015,-0.041598,0.104341,-0.225464,-0.008110,-0.314456,0.008224,0.014082,-0.025044,0.125711,0.026589,0.034590,0.203573,0.150685,-0.090641,-0.259001,0.115986,0.038703,-0.145648,0.114732,-0.141693,0.008934,0.040738,-0.017312,0.380478,0.060617,-0.093858,-0.052161,-0.182794,-0.007231,0.052081,-0.183074,0.039242,0.261625,0.063381,0.128827,-0.221339,-0.014725,-0.162584,-0.026214,0.109282,-0.051877,0.225245,-0.048250,0.024430,0.099069,-0.057715,0.027832,-0.165230,0.054745,0.028922,0.000353},
	{0.061808,-0.008978,0.325284,-0.199753,-0.079610,-0.223887,-0.001224,-0.136253,0.061342,0.006899,-0.011457,0.041082,0.062007,0.076652,-0.029952,-0.025247,-0.028730,0.015787,-0.118592,0.043262,-0.232511,0.008188,0.048718,-0.033701,0.164103,0.005662,0.052011,-0.077020,-0.069206,0.025598,0.019989,-0.091978,0.070493,-0.022037,-0.022934,-0.008212,0.001181,-0.027304,-0.121522,-0.047251,0.032507,-0.008022,0.063779,0.098896,0.146224,0.098224,-0.064782,0.030126,-0.008302,-0.012119,0.093916,0.059802},
	{0.034245,-0.037457,0.271790,-0.069201,0.074595,0.208121,-0.014341,-0.107350,-0.105943,-0.159371,0.083697,0.047034,-0.104338,-0.004835,0.103156,0.198928,-0.159333,0.000662,-0.076205,-0.043411,-0.222072,-0.036503,-0.098170,0.065055,-0.251465,0.024800,-0.060409,-0.038864,0.116216,0.022081,-0.097805,-0.033100,0.263759,-0.163327,0.004988,-0.170324,0.050406,0.082306,0.121592,0.015713,0.078375,-0.069123,-0.071964,0.147919,0.200978,0.086797,-0.050915,0.021216,0.149415,-0.016158,0.077504,0.175873},
	{0.089315,-0.094380,-0.098601,-0.085079,-0.043723,0.308865,-0.016588,-0.221063,-0.106514,-0.030469,0.101388,-0.009267,-0.261432,-0.088394,0.088363,0.009433,-0.077850,0.068534,0.096947,-0.046122,0.023157,-0.007802,-0.015213,-0.071587,-0.238504,-0.062880,0.027205,0.076279,-0.091103,-0.072392,0.024507,0.149284,0.200101,0.137980,0.027319,-0.150013,0.118657,0.067375,0.257549,-0.004917,0.036688,-0.003406,0.000615,0.110682,0.108848,-0.082396,-0.255436,-0.079223,-0.042131,0.100100,-0.011021,0.023244},
	{0.033422,0.008258,-0.242060,0.136171,-0.003287,0.203511,-0.022092,0.046620,-0.017052,0.048633,0.106139,-0.052196,-0.256039,-0.168701,-0.031250,-0.181646,-0.070677,0.038300,0.023670,-0.079309,0.266317,-0.085150,0.011071,-0.071785,-0.195851,-0.077918,-0.027848,0.109845,-0.018588,-0.046034,-0.004181,0.050456,0.178746,0.175902,0.023408,-0.075231,0.122535,0.056431,0.292672,0.013635,0.022758,-0.022319,0.062652,0.076215,-0.033658,-0.023789,-0.143486,-0.063406,-0.025130,0.021792,-0.102576,-0.009581},
	{0.004931,-0.039071,-0.195075,0.262963,0.044103,-0.225914,0.021137,0.055973,0.140273,0.279116,0.042289,0.089436,0.043269,-0.133462,-0.079091,-0.268224,0.188628,0.027691,0.118915,-0.104721,0.209895,0.073372,0.029224,-0.109440,0.208953,0.052021,-0.005810,-0.038828,-0.183451,-0.045132,0.101855,0.178003,0.069800,0.247060,0.046221,0.020855,0.055199,0.007390,0.028207,-0.103678,0.056928,-0.038917,0.105586,0.002906,-0.080397,0.023466,-0.160739,-0.032979,-0.130461,-0.081517,-0.094391,-0.184191},
	{0.028987,-0.012833,-0.001830,0.296589,0.024770,-0.374850,-0.019996,0.141388,0.196021,0.095707,-0.137701,0.093163,0.118672,-0.159040,-0.106779,0.043088,0.183068,0.002019,0.003562,-0.015708,0.087557,0.053624,0.146063,0.021153,0.393451,0.063811,0.037952,-0.132537,-0.081272,0.114149,0.041437,0.124445,-0.014423,0.016989,-0.054768,0.034887,-0.013231,0.021368,-0.180825,-0.051028,0.089323,-0.069767,0.094048,0.017268,-0.205817,0.213580,0.011939,-0.042671,-0.022277,-0.248827,-0.055572,-0.067474},
	{-0.028024,0.043329,0.145226,0.176852,0.031715,-0.148573,0.019117,0.089696,0.020334,-0.111446,-0.090686,-0.021592,0.240786,-0.011617,-0.016715,0.264466,0.029376,-0.003468,-0.046222,-0.041178,-0.158362,-0.048070,0.011841,0.092825,0.175521,0.065968,-0.005436,-0.151329,0.062349,0.090693,-0.134860,0.020292,-0.245323,-0.143414,-0.064604,0.029352,-0.163232,-0.040612,-0.213234,-0.013365,-0.068309,-0.005036,-0.067739,0.040337,-0.055712,0.166357,0.117105,0.024553,0.076429,-0.073328,0.092177,0.138768},
	{-0.016374,0.019768,0.192574,-0.031704,0.012772,0.056909,0.092992,-0.036699,-0.078065,-0.171187,0.065335,0.001459,0.177272,0.070839,0.142604,0.182837,-0.132971,-0.067636,-0.010591,0.021423,-0.132164,0.020608,0.043664,0.021248,-0.027458,-0.005186,-0.027560,0.060584,0.126379,0.016050,-0.123643,-0.111695,-0.265895,-0.196830,-0.004579,0.116705,0.004531,-0.004719,-0.122762,0.057953,0.026179,0.009197,-0.174412,-0.026014,0.005763,-0.008519,0.250211,0.006005,0.047716,0.100374,-0.083256,0.162778},
	{-0.082113,0.083439,0.013964,-0.116547,0.024610,0.282735,-0.027829,-0.054423,-0.223370,0.006260,0.038824,-0.112057,-0.004815,0.153266,0.066515,0.017192,-0.011839,0.037839,0.014626,0.007217,0.020282,-0.084252,0.077344,0.041695,-0.325899,-0.090546,-0.025440,0.089118,0.039005,-0.030196,0.023591,-0.077041,-0.175587,0.008081,0.046174,0.008768,0.118412,-0.028695,0.039145,0.033554,-0.005518,0.093788,-0.012862,-0.095010,0.118479,-0.150609,0.156490,0.070965,0.079561,0.205114,-0.066785,0.044271},
	{-0.064486,0.002127,-0.091165,-0.163442,-0.069039,0.244387,0.057634,-0.083282,-0.188625,0.262944,0.044325,-0.118948,-0.157817,0.126493,-0.025777,-0.170805,0.027874,0.002331,0.107680,0.064954,0.088267,-0.082881,-0.022243,0.006589,-0.064441,-0.050413,-0.024601,0.255062,-0.210567,0.050905,0.232250,-0.198516,-0.131479,0.214298,0.016621,-0.140371,0.130576,-0.061365,0.073401,0.088289,0.011053,0.005164,0.080114,-0.161995,0.120052,-0.204923,0.099611,0.020807,0.023180,0.160621,-0.110335,-0.167026},
	{0.007419,0.003508,-0.152102,-0.193124,0.009397,-0.057106,-0.048459,-0.040152,0.059328,0.255948,-0.057423,0.062211,-0.125347,0.062350,-0.016650,-0.121410,0.135421,0.017286,-0.064980,0.039222,0.178989,-0.075695,-0.003217,-0.013028,0.063933,0.072607,-0.059318,-0.076965,-0.126344,-0.021258,0.118411,-0.042953,-0.052222,0.167617,0.113627,-0.114052,0.203597,-0.106092,0.077621,-0.104762,-0.036420,-0.016246,-0.031870,0.016135,0.101321,0.080093,0.085643,0.065455,0.013202,-0.097541,0.048724,-0.210930},
	{0.073422,0.035489,-0.058870,-0.173516,-0.028940,-0.235634,-0.013945,-0.042916,0.327411,0.054146,-0.106615,0.016691,-0.081638,-0.048329,-0.002216,0.008493,0.042396,-0.026572,-0.108356,0.042208,0.052223,0.132150,0.075299,0.008936,0.191036,0.141338,-0.050035,-0.125734,0.089295,0.086876,-0.104319,0.091419,0.121087,0.020398,-0.083390,-0.100611,0.017837,-0.032965,0.120943,-0.104923,-0.059192,-0.115489,0.037128,0.114344,-0.015680,0.181621,-0.117799,0.044883,-0.034467,-0.363229,0.072523,-0.147983},
	{-0.079433,0.000792,0.070992,-0.179822,-0.059138,-0.117630,-0.017029,-0.035904,0.229548,-0.020151,-0.136114,0.001727,0.056181,-0.197337,-0.001523,0.001479,0.000572,0.003548,-0.172981,0.077456,-0.040598,0.105321,0.003840,0.026849,0.210220,0.076577,0.007138,-0.043631,0.112850,0.024357,-0.057162,0.086139,0.175113,0.040572,0.022132,0.179462,-0.105066,0.001114,0.065614,0.001440,-0.000952,-0.180988,-0.068950,0.053895,-0.055398,0.109498,-0.054395,-0.028664,0.061717,-0.180244,0.151215,0.055184},
	{0.004474,-0.061078,0.101274,-0.078244,0.012843,0.082037,0.026262,0.081678,-0.056037,-0.362730,0.043301,0.038260,0.079162,-0.099513,0.075188,-0.019252,-0.102968,0.091538,0.024783,-0.002306,-0.060213,-0.002068,-0.002040,-0.034177,-0.067230,-0.012094,0.047797,0.027137,0.082040,-0.076080,-0.044775,0.141458,0.302342,0.022027,0.103850,0.245405,-0.258849,0.030449,-0.070940,0.022153,-0.052116,-0.058891,-0.128685,0.136139,-0.172758,-0.024323,-0.193042,0.030034,0.021841,-0.035539,-0.060607,0.309301},
	{-0.016918,0.014857,0.124058,0.157810,0.015984,0.224692,-0.080831,0.119172,-0.237657,-0.299479,0.200245,-0.001527,0.047211,0.007768,0.058718,0.037462,-0.068889,0.056727,0.046644,-0.037449,-0.208881,0.041430,-0.024515,-0.083153,-0.234185,-0.061381,0.033824,0.179967,-0.040348,-0.056511,0.055199,0.082020,0.185730,-0.026906,0.006979,0.004361,-0.063495,0.087310,-0.035550,0.064583,0.046669,0.067318,-0.041207,-0.000218,-0.151521,-0.140740,-0.108229,0.006218,0.051191,0.166537,-0.070398,0.239340},
	{0.040520,0.070996,-0.084691,0.144212,-0.020014,0.120316,-0.007039,0.109788,-0.336749,0.102469,0.159728,-0.036362,-0.040189,0.011259,-0.011148,-0.064529,0.140840,0.046872,0.197339,-0.068202,-0.016251,0.037281,0.039484,-0.091647,-0.159466,-0.124112,-0.018388,0.108717,-0.331242,-0.009503,0.369686,0.052385,0.169394,0.149167,-0.010208,-0.114639,0.143587,-0.052452,-0.017062,-0.041788,-0.027265,0.024821,0.169534,0.064808,-0.065264,-0.072862,-0.155854,0.071740,-0.149382,0.275930,-0.153948,-0.165933},
	{0.023314,-0.039181,0.000456,0.223472,-0.027588,-0.026936,-0.081522,-0.041080,-0.016798,0.249969,0.022064,0.015322,0.064684,0.158929,-0.059127,0.030484,0.114532,-0.030958,0.173119,-0.029797,-0.011932,0.022942,-0.023882,-0.013407,0.010261,-0.017729,0.057492,0.012985,-0.140982,0.043982,0.052497,-0.165397,-0.030975,0.029670,0.003331,-0.282141,0.240145,-0.006318,-0.078874,0.023077,0.078114,-0.013527,-0.016168,0.039188,-0.007839,0.127701,0.060703,0.010168,-0.116181,0.010618,-0.208840,-0.301043},
	{0.036315,-0.061924,-0.131556,0.155581,0.077790,-0.106264,-0.023251,-0.189058,0.139820,0.299895,-0.202751,0.015789,0.007871,0.061590,-0.032293,0.022037,0.098013,0.026677,0.051653,0.037346,0.075341,0.037576,-0.019299,-0.064195,0.075330,0.107636,0.007842,-0.137706,0.024487,0.044925,-0.085956,-0.116391,-0.140262,0.084031,-0.117442,-0.220774,0.219171,0.036036,-0.066112,-0.034746,0.022752,-0.067597,0.019550,-0.018762,0.144610,0.118114,0.183502,-0.017452,0.038504,-0.188885,-0.018791,-0.289777},
	{-0.050080,0.024124,-0.061306,-0.066952,0.059299,-0.128108,0.003585,-0.283377,0.187746,-0.065406,0.006875,0.007488,-0.005693,0.094780,0.040919,0.040914,-0.057896,-0.065255,-0.037525,-0.067404,0.009890,-0.010604,-0.000129,0.049570,0.137788,-0.022087,0.042484,-0.088050,0.261382,-0.061911,-0.262118,-0.025140,-0.122324,-0.003099,0.079463,0.073815,-0.059432,-0.001636,0.039612,-0.035637,-0.043574,-0.021365,-0.022895,0.005426,0.227054,0.128958,0.178348,-0.028687,0.055009,-0.205059,0.033926,-0.022502},
	{0.018636,-0.034724,-0.070347,-0.124700,-0.045333,0.003713,-0.001546,0.003635,0.156460,-0.183293,0.102560,-0.052821,-0.148779,0.094478,0.088752,0.016206,-0.079973,0.015168,-0.073911,-0.067842,0.026750,-0.028304,-0.092053,0.073811,0.063678,-0.045984,-0.017531,0.103027,0.137476,-0.046266,-0.226020,-0.147994,-0.145319,0.028195,0.072627,0.237089,-0.254152,0.050959,0.078190,0.030512,-0.033911,0.070525,-0.067010,-0.053884,0.003386,-0.123200,0.173830,-0.051440,0.061379,-0.058812,0.035377,0.320643},
	{-0.022954,-0.070025,0.052829,-0.235445,-0.036729,-0.081968,-0.035869,0.118567,-0.175603,-0.179126,0.232065,-0.022312,-0.197921,-0.005535,0.039818,-0.066453,0.014835,0.047179,0.034776,0.034881,0.019156,-0.053402,-0.049864,-0.088253,0.001921,-0.171143,-0.041500,0.234910,-0.130239,-0.019900,0.131277,0.002218,-0.019829,0.036695,0.044640,0.244108,-0.225896,-0.022215,0.112532,0.063324,0.035615,0.076388,0.079403,-0.207396,-0.114942,-0.165908,0.162558,-0.018635,-0.070443,0.102201,0.124327,0.110763},
	{0.051935,-0.000056,0.014670,0.195215,0.049411,0.052647,0.076089,-0.159462,0.245384,0.141163,-0.176302,0.053222,0.191132,0.056960,0.050513,0.029581,-0.039933,0.004882,0.092908,-0.035121,0.041059,0.039372,-0.008606,0.067302,-0.112422,0.243187,0.093915,-0.158240,0.247142,0.061448,-0.135651,0.000651,0.125926,0.046513,-0.128347,-0.251928,0.283452,-0.045249,-0.144646,0.014203,-0.030770,-0.075502,-0.062110,0.149732,0.179553,0.250225,-0.115982,-0.075472,0.117746,-0.212095,-0.055667,-0.158584},
	{-0.001948,0.049955,-0.118211,0.144001,-0.094503,0.145105,0.036301,-0.258247,0.107256,-0.109369,0.006978,0.035872,0.069022,0.100609,0.202658,-0.054788,-0.215885,-0.048066,0.094455,-0.080139,0.212029,-0.072994,-0.081603,0.058521,-0.164235,0.069805,-0.012367,0.026577,0.227495,-0.030299,-0.299807,-0.107458,-0.059885,0.045735,0.008122,0.017929,0.008330,0.133387,-0.092953,0.094753,-0.099543,-0.131171,-0.213655,0.044326,0.270379,-0.064665,-0.000304,-0.089613,0.153662,-0.078663,0.016704,0.112588},
	{0.083867,-0.045891,-0.216362,0.284865,0.045232,0.062807,0.020363,-0.169121,-0.030051,-0.298046,0.127419,0.036938,-0.085526,0.150188,0.125653,0.011091,-0.119076,0.001374,0.095137,-0.009687,0.125878,0.037206,-0.048408,0.047686,-0.038115,-0.133594,0.131721,0.115551,0.104286,-0.118086,-0.057556,-0.127062,-0.096836,0.044574,0.048743,0.352943,-0.257158,0.067620,0.145476,0.090768,-0.007008,0.017679,-0.127266,-0.022942,0.158281,-0.172524,0.027867,-0.027913,0.011859,0.114592,-0.123654,0.373373},
	{0.003659,0.008661,-0.065407,0.210985,0.063916,-0.149160,0.026123,-0.001560,0.012682,-0.125905,0.011439,-0.056987,-0.224509,0.128202,-0.072071,0.065977,-0.012694,-0.020924,0.014323,0.013307,0.063825,-0.047219,-0.013467,-0.055199,0.207247,-0.087268,-0.052808,0.099861,-0.155319,-0.067429,0.157426,-0.061478,-0.209089,-0.129427,0.013404,0.219639,-0.228893,0.013904,0.232752,0.009763,-0.004104,0.064221,0.152762,-0.105638,0.011889,-0.105807,0.084680,-0.062240,-0.107855,0.046569,-0.079213,0.147263},
	{-0.002368,0.087245,0.011538,0.034145,0.024970,-0.269490,0.021085,0.194499,-0.083019,0.100746,0.077176,-0.118797,-0.151610,-0.021225,-0.143954,0.212251,0.083968,0.062842,-0.036044,0.013281,-0.106524,-0.017639,0.020023,-0.041428,0.249781,0.033495,0.024628,-0.092392,-0.148177,0.028090,0.169841,0.002575,-0.214762,-0.115223,-0.039490,0.071051,-0.096364,-0.009979,0.086612,0.037093,0.162923,0.089568,0.066940,-0.045358,-0.191558,-0.001250,0.145952,0.026593,-0.130267,0.094535,0.053260,-0.136773},
	{-0.072092,-0.030790,0.210297,-0.244301,-0.023552,-0.018354,0.117509,0.158737,-0.135008,0.269347,-0.044160,-0.069395,-0.085216,-0.069570,-0.055513,0.113657,0.059023,-0.018878,-0.170532,0.057174,-0.205393,0.032248,-0.013086,0.031385,-0.020420,0.118743,0.079464,-0.012634,-0.005130,-0.078008,-0.065102,0.068386,-0.140204,-0.082836,0.024431,-0.166483,0.175390,0.038652,0.000872,-0.005250,-0.012917,0.031269,-0.021672,-0.103628,-0.157677,0.039222,0.216298,0.088183,-0.044685,0.083040,0.136084,-0.210843},
	{-0.022932,-0.054614,0.064319,-0.203439,-0.066058,0.122860,0.033150,0.055461,0.184528,0.153900,-0.018521,0.044383,0.140698,-0.119263,0.036743,-0.065664,-0.135592,-0.035525,-0.084191,0.010782,-0.133921,0.017169,-0.061289,0.041963,-0.042028,0.134020,0.022000,-0.103318,0.143071,0.100733,-0.162045,0.070803,-0.063113,0.054408,-0.028493,-0.172446,0.243480,-0.104163,-0.152963,-0.002108,-0.083901,-0.125678,-0.031054,0.056343,-0.071333,0.112416,0.115113,-0.046307,0.039753,-0.056381,0.163571,-0.134534},
	{-0.042650,-0.022992,-0.042348,-0.205689,-0.050898,0.335159,-0.001691,-0.140738,-0.014229,-0.108182,0.044784,0.042864,0.150625,-0.039582,0.140913,-0.217147,-0.184257,0.019451,-0.136203,0.062925,0.068495,-0.020507,-0.071698,0.042659,-0.240843,-0.024930,-0.054258,0.087771,0.134351,-0.043496,-0.152641,0.055296,0.027944,0.284425,0.103085,-0.018383,0.083871,-0.048488,-0.182145,0.107067,-0.078212,-0.087794,-0.028107,-0.070993,0.203456,-0.107320,0.045241,-0.041063,0.121900,-0.045752,0.075531,0.116769},
	{0.028083,0.016349,-0.121776,-0.142045,-0.127892,0.156612,0.034275,-0.147832,0.076714,-0.266046,0.044870,0.017519,0.078347,-0.079616,0.003592,-0.162072,-0.096236,0.093354,0.108360,0.033713,0.182945,0.021711,0.024056,-0.047373,-0.088117,-0.055650,-0.020337,0.152377,-0.081440,0.013427,0.086585,0.119199,0.189252,0.128185,-0.032591,0.069779,-0.071882,-0.026475,-0.170341,0.091122,-0.068552,0.007264,0.121211,0.038239,0.276474,-0.058839,-0.193507,0.045214,-0.023686,-0.042449,-0.041079,0.273222},
	{-0.019507,-0.059130,-0.248373,-0.058823,-0.008723,-0.106139,-0.002095,-0.149726,-0.057588,-0.254520,0.077291,-0.029566,-0.028044,-0.037852,-0.177510,0.009322,0.105719,0.051666,0.190159,0.059703,0.244466,-0.045269,0.062964,-0.046958,0.099577,-0.073771,0.031956,0.136832,-0.223805,-0.013750,0.224735,0.038382,0.184927,-0.005713,-0.009572,0.148049,-0.148072,-0.011592,-0.023807,-0.046215,0.081252,0.038943,0.095789,0.005983,0.131896,-0.126252,-0.200862,0.022375,-0.197344,0.130872,-0.076174,0.079303},
	{0.044875,0.033161,-0.017270,0.062269,-0.049714,-0.093818,-0.030799,-0.003044,-0.018065,0.015634,0.029011,-0.087546,-0.128918,0.051890,-0.094110,0.277634,0.209326,-0.027775,0.217785,0.016437,0.041656,-0.000363,-0.051581,-0.012821,0.198306,0.056725,0.050131,-0.103427,-0.160228,0.066192,0.114519,-0.027418,0.184371,-0.110450,-0.034598,0.007262,-0.042650,-0.135909,0.188910,-0.077288,0.066525,0.111315,0.010766,0.003909,0.041854,0.013904,-0.106359,-0.020062,-0.041997,0.101023,-0.163429,0.042124},
	{0.056441,0.035164,0.079946,0.154600,-0.004116,-0.075797,-0.017834,0.118640,0.000682,0.203904,-0.063143,0.071439,-0.087523,0.047210,0.061055,0.213406,0.046215,0.021975,0.116255,-0.055750,-0.069622,0.027560,0.050319,-0.028647,0.112937,0.107512,-0.002357,-0.181332,0.051936,0.035607,-0.037080,-0.157847,0.164169,-0.192119,-0.001803,-0.007187,0.008465,-0.085662,0.107840,-0.002255,0.069489,0.014640,-0.087072,0.185645,-0.146072,0.176963,-0.147867,-0.053153,0.033821,0.028868,-0.122941,-0.165559},
	{0.034663,0.038851,0.143325,0.207653,-0.015367,0.215131,-0.049177,0.176380,-0.000239,0.181730,-0.016906,0.030937,-0.144931,0.098511,0.099694,-0.050293,-0.154087,0.046107,0.016469,-0.007420,-0.093602,0.085680,-0.077369,0.039546,-0.195547,0.032987,0.018167,0.037702,0.233726,-0.012277,-0.282217,-0.050492,0.011037,0.031198,-0.010215,0.022092,-0.063480,0.040919,0.061408,0.092138,-0.118184,-0.031722,-0.101852,0.083577,-0.103163,-0.006001,-0.042311,-0.009050,0.137994,-0.018661,0.077701,-0.129720},
	{0.017886,-0.005274,0.067279,0.259239,0.048371,0.373254,0.004918,0.036406,0.041127,-0.086595,0.044960,0.031156,-0.014314,0.121594,0.233436,-0.217534,-0.177048,0.068109,-0.150674,-0.004251,-0.041311,-0.074844,-0.053330,0.190183,-0.290355,-0.076809,0.050871,0.176501,0.157486,-0.182786,-0.174272,-0.072038,-0.107487,0.261017,0.040371,-0.007080,0.048164,0.006016,-0.031185,0.067783,-0.279508,-0.041492,-0.134625,0.001067,-0.116729,-0.198039,0.078548,0.031829,0.065393,0.050562,0.214344,0.026985},
	{-0.006569,-0.014069,-0.151400,0.263508,-0.038741,0.077683,0.051704,0.083554,0.046571,-0.091695,0.126779,0.009939,0.055143,-0.016615,0.024386,-0.154915,-0.034972,-0.030325,-0.206976,-0.024716,0.166614,0.021345,0.021655,0.017926,-0.182666,-0.113941,-0.056508,0.169421,-0.106847,-0.037928,0.063108,0.025473,-0.145330,0.143671,0.053727,0.016931,-0.012881,0.073114,-0.098490,0.089661,-0.042852,0.047927,0.041311,-0.174518,-0.003571,-0.120363,0.095244,0.018806,-0.130094,-0.072323,0.199859,0.165535},
	{0.006876,0.026436,-0.173987,-0.020147,0.020107,-0.034387,-0.004042,-0.209073,0.102890,-0.113661,0.064398,-0.096365,0.162425,-0.044773,-0.157805,-0.020302,0.196719,0.032495,-0.175440,-0.033254,0.151473,-0.065059,0.031127,-0.008106,0.108183,-0.040313,-0.022502,0.047308,-0.297753,0.069760,0.259626,0.132727,-0.283352,0.061738,0.041163,0.013583,-0.008089,-0.062790,-0.154160,0.033821,0.016436,0.084570,0.105434,-0.161024,0.113623,-0.017132,0.267101,-0.007677,-0.065114,0.021203,0.203018,0.170130},
	{0.006522,-0.076686,-0.101076,-0.155210,0.045223,-0.170136,0.030481,-0.151396,-0.111151,0.082736,0.020721,-0.133855,0.096693,-0.144183,-0.172363,0.298797,0.211111,0.034949,-0.055965,0.033747,0.105447,-0.073744,0.041217,-0.074560,0.257442,0.034292,-0.029264,-0.124307,-0.063038,0.044618,0.133812,0.163530,-0.289443,-0.273783,0.027184,0.017860,-0.067171,-0.081506,-0.031229,-0.008684,0.150591,0.135501,0.016747,-0.138048,0.120280,0.079700,0.304837,0.050502,-0.069233,0.053763,-0.050390,-0.076814},
	{0.021817,-0.067419,0.088688,-0.229958,-0.023408,-0.260381,0.046038,-0.142384,-0.142806,0.238241,-0.025070,-0.042971,0.010485,-0.106736,-0.125613,0.280090,0.036617,-0.090242,0.156711,0.063024,-0.033006,-0.056132,0.037792,0.044471,0.106737,0.029992,-0.004921,-0.121158,0.092137,-0.028441,-0.242695,0.083818,-0.133473,-0.271685,0.070934,0.011676,-0.057160,-0.074619,-0.003979,0.026800,0.041453,0.003452,-0.072520,-0.019039,0.094681,0.158523,0.065970,0.074698,0.061757,0.157168,-0.109756,-0.217254},
	{0.038836,-0.059207,0.210670,-0.228939,0.001053,-0.055456,-0.043987,0.033741,0.064301,0.101513,-0.084366,0.030728,-0.052778,-0.081559,0.112793,-0.109925,-0.068718,0.027076,0.184574,0.051497,-0.174050,-0.031565,-0.066217,-0.011831,0.082838,0.049539,0.001820,-0.078304,0.325045,-0.063661,-0.260719,0.087805,0.140015,0.040662,0.048674,0.119575,-0.117721,0.072488,0.020544,-0.023520,-0.023795,-0.045874,-0.036266,-0.018883,0.054365,0.087216,-0.087194,-0.035432,0.109688,-0.079279,-0.173639,-0.124825},
	{0.037545,-0.086816,0.176210,-0.186784,-0.000062,0.161276,-0.000315,0.067947,0.020958,-0.031549,0.131044,0.018439,-0.200135,-0.072867,0.140786,-0.266804,-0.198206,-0.008870,0.125912,-0.050256,-0.120229,0.011963,-0.017783,0.027268,-0.188213,-0.052469,0.015462,0.187705,0.113458,-0.048231,-0.001348,0.008222,0.171179,0.279754,0.012201,0.060824,-0.078044,-0.009498,0.164383,0.147502,-0.013661,-0.063665,-0.014757,-0.001322,-0.086437,-0.124518,-0.126090,-0.022000,0.031921,-0.143693,-0.234664,0.033058},
	{0.057938,-0.060483,0.015623,0.047191,0.019290,0.229179,-0.023932,0.233738,0.195947,-0.125716,0.056594,0.036358,-0.049494,0.067462,-0.100822,-0.238105,0.036781,-0.008686,0.013766,0.012031,-0.032654,0.084051,0.056945,-0.030552,-0.205206,0.008329,-0.043861,0.013734,-0.169108,-0.018021,0.220125,-0.038604,0.224167,0.149246,0.053139,-0.142237,0.134257,-0.061828,0.037775,-0.066296,0.018305,0.016550,0.162180,0.071700,-0.146161,0.016099,-0.205204,0.015416,-0.144960,-0.284389,-0.005359,0.172979},
	{0.007825,-0.016430,-0.057096,0.089951,-0.008844,0.131445,-0.014677,0.230875,0.104178,-0.176858,-0.005834,-0.036856,0.049166,0.057127,-0.062915,0.074306,0.165647,0.072454,-0.091992,0.035368,0.176248,0.005419,0.036948,-0.024616,-0.151292,0.030640,-0.032403,-0.072790,-0.224250,-0.014847,0.311830,-0.140569,0.179328,-0.114090,-0.081933,-0.243002,0.247055,-0.006612,-0.055870,-0.088239,0.078834,0.025309,-0.008832,0.104050,-0.129082,0.046475,-0.132277,0.008780,-0.053550,-0.148607,0.059934,0.081345},
	{0.036126,-0.008793,-0.239273,0.159890,0.043464,-0.036551,-0.129937,0.024617,-0.010919,-0.050287,-0.122378,0.014318,0.045632,0.095866,-0.166108,0.523643,0.120083,-0.044843,-0.209627,0.072050,0.176677,0.041870,-0.009563,-0.033874,0.083304,0.165361,0.044166,-0.215425,-0.004034,0.017654,0.094108,-0.115666,0.244464,-0.332833,-0.072394,-0.242483,0.142763,-0.017167,-0.082745,-0.040530,0.141771,0.013889,-0.073036,0.233594,0.037382,0.159863,-0.245307,-0.050630,0.112568,-0.003073,0.176801,-0.010290},
	{0.052753,-0.004254,-0.269646,0.248144,0.041397,-0.193935,-0.036921,-0.126203,-0.313875,0.081299,-0.108872,0.069035,0.014704,0.132596,0.124036,0.249163,-0.046668,0.060341,-0.082311,-0.097196,0.243709,0.031904,0.011826,0.014277,0.052598,0.088146,0.050664,-0.149028,0.323125,-0.076390,-0.276029,-0.195911,0.237416,-0.337920,-0.047690,0.183839,-0.174581,-0.017277,-0.066889,0.007780,0.015486,-0.037613,-0.225871,0.251760,0.034593,0.096851,-0.200218,-0.034811,0.165916,0.248946,0.146385,-0.090212},
	{0.002725,0.026342,-0.014810,0.441989,0.038679,-0.011334,-0.023095,-0.125130,-0.325580,0.187397,0.044672,0.004461,0.062111,0.019198,0.164972,-0.157881,-0.238748,0.107032,-0.073651,0.023052,-0.004477,0.041427,-0.045992,0.062545,0.081392,0.016526,0.095038,0.185688,0.341988,-0.110585,-0.346292,0.018951,0.021740,0.112325,0.074765,0.312869,-0.318421,0.159851,-0.047882,0.191553,-0.066267,-0.126227,-0.175607,0.119684,0.225261,-0.193595,-0.153080,0.010520,0.059293,0.368843,0.007869,-0.220312},
	{0.057438,-0.032110,0.140284,0.508958,0.044737,-0.070591,-0.014671,-0.108572,-0.147047,0.028399,0.097638,0.023111,-0.119498,-0.124681,0.004020,-0.574797,-0.057522,0.084520,0.034238,-0.047171,-0.171010,0.072220,0.012334,0.061664,0.125615,-0.110322,-0.027632,0.186794,-0.053350,-0.154249,0.047993,0.038168,-0.256784,0.648051,0.072919,0.320537,-0.382805,-0.051514,0.004877,0.112844,-0.052466,-0.042163,0.160740,-0.146493,0.133630,-0.270474,0.085815,-0.022567,-0.279096,0.032231,-0.069761,-0.133926},
	{-0.003861,0.012067,-0.448443,-0.568467,-0.060904,0.223296,0.028194,0.168992,-0.197900,0.047804,0.067737,-0.000337,-0.054625,0.211877,0.200821,0.084530,-0.256757,0.105208,0.143071,0.010166,0.421476,-0.045901,-0.008162,0.261706,-0.228224,0.051955,0.052049,0.169985,0.410617,-0.152558,-0.437269,-0.228639,-0.133795,-0.061681,0.129296,0.060918,-0.010536,0.073168,-0.023900,0.134580,0.001461,0.039128,-0.277395,-0.113825,-0.245017,-0.162400,0.175115,-0.028656,0.224979,0.075826,-0.115558,-0.090285},
	{-0.006739,-0.104830,-0.192211,-0.339724,-0.014748,-0.096658,0.035301,0.131467,-0.113570,0.122092,0.143898,0.017049,0.118410,0.199439,0.082487,-0.403090,-0.102225,-0.051644,0.094207,0.099625,0.293712,-0.199206,0.022171,-0.042726,0.105794,-0.136799,0.030566,0.172820,0.109959,-0.094991,-0.096607,-0.238686,0.229037,0.423345,0.115732,0.249849,-0.260525,0.029815,-0.031555,0.138545,-0.004534,-0.032262,0.010623,-0.077230,-0.238499,-0.217861,-0.040335,-0.017310,-0.024109,0.150565,-0.010573,-0.165520},
	{0.029831,-0.111049,0.017534,-0.151833,-0.029071,-0.287751,-0.070983,0.029995,-0.089398,0.109285,0.102065,0.091576,0.030612,0.087308,-0.041046,-0.485914,0.028777,0.038521,-0.118488,-0.021796,0.014510,-0.105121,0.010893,-0.130020,0.323905,-0.106135,-0.038234,0.004170,-0.073628,0.031110,0.086228,-0.123856,0.273072,0.546567,0.070748,0.363802,-0.334108,-0.049959,-0.120313,-0.005965,0.050801,-0.042964,0.220611,-0.159201,-0.025356,-0.056453,-0.120673,-0.051759,-0.302912,0.050902,0.120053,-0.167083},
	{-0.020900,-0.019396,0.270325,-0.015112,0.039049,-0.258693,-0.006517,-0.129610,-0.057486,-0.019337,0.006511,0.013749,0.054694,0.136789,-0.085850,-0.141651,0.085196,0.030439,-0.128849,-0.018190,-0.293412,0.071901,0.061635,-0.004316,0.215642,0.051839,-0.023403,-0.078908,-0.220760,0.039390,0.173774,-0.077270,0.214825,0.100570,-0.072333,0.092978,-0.051776,0.065798,-0.129364,-0.049590,0.060861,-0.094669,0.135960,0.051637,0.095541,0.083989,-0.164426,-0.050140,-0.053875,0.019077,0.229932,0.042255},
	{0.060872,-0.000568,0.319814,0.126187,-0.030168,0.070650,-0.025157,-0.243600,0.143954,-0.113730,0.000528,0.084395,-0.047838,0.020222,-0.005513,0.246718,0.058043,-0.009700,0.014829,-0.102619,-0.410178,0.056143,0.091810,-0.025659,-0.074243,0.093081,0.095487,-0.147171,-0.096477,0.087707,0.054809,0.075472,0.123808,-0.120183,-0.078091,-0.081570,0.107640,-0.000695,0.120874,-0.109579,0.045383,0.045214,-0.075979,0.116715,0.176228,0.203064,-0.206571,0.025121,0.024832,-0.098418,0.027974,0.129694},
	{-0.006565,0.014075,0.101925,0.140216,0.063918,0.314942,-0.051118,-0.125726,0.050229,-0.153897,-0.024115,0.046593,-0.276771,-0.173560,-0.013147,0.210406,-0.042488,0.001578,0.079604,-0.023372,-0.039945,0.008589,0.031818,0.035372,-0.300308,-0.048861,0.017239,-0.113450,0.033356,0.071476,-0.023334,0.140342,0.172152,-0.102656,-0.070193,-0.204452,0.279829,0.006483,0.235205,0.020139,-0.017988,-0.066592,-0.147841,0.047013,0.117921,0.020361,-0.119282,-0.036353,0.146590,-0.097670,-0.073749,0.125295},
	{0.008720,0.060352,-0.244243,0.180440,0.021581,0.205576,-0.044588,-0.026201,-0.164435,0.059581,0.158900,-0.079808,-0.201722,-0.121219,0.077610,-0.017533,-0.056861,0.078070,0.126209,0.025605,0.192822,-0.075045,0.054957,0.001201,-0.372733,-0.131457,-0.037395,0.156801,-0.032704,-0.040718,0.028942,0.156519,0.123750,-0.022753,0.000130,-0.164744,0.059775,0.021803,0.259056,0.044576,-0.076913,-0.017088,0.000622,0.034344,0.021614,-0.151142,-0.135218,0.006904,0.047017,0.127748,-0.095113,-0.000372},
	{0.016196,-0.048199,-0.219990,0.348024,0.010609,-0.167208,-0.048942,0.131291,0.123453,0.162003,-0.027352,0.059081,-0.079453,-0.156177,0.070714,-0.110655,0.032191,-0.074129,0.127257,-0.058444,0.263384,-0.047694,-0.025470,-0.050547,0.162434,0.046962,0.102820,0.063779,-0.048956,0.001432,0.063403,0.128532,0.002409,0.150644,-0.036815,0.011598,0.033419,0.063022,0.032820,0.055412,-0.021108,0.010182,0.094231,-0.090688,-0.115501,-0.030650,-0.002152,0.033366,-0.042199,-0.112245,-0.128888,-0.075372},
	{0.042253,0.004307,-0.122632,0.234593,0.100089,-0.239617,-0.006554,0.179934,0.156891,0.142465,-0.038654,-0.011559,0.111693,-0.035010,-0.128265,-0.046536,0.070013,0.010296,0.048725,0.033538,0.138292,0.010817,0.029799,-0.053079,0.242779,0.017979,0.009651,-0.029320,0.024762,0.032416,0.056551,0.014541,-0.170016,0.102311,-0.066087,0.124491,-0.089667,0.015550,-0.145419,-0.036853,-0.016256,-0.052328,0.150404,-0.078105,-0.151044,0.000013,0.073493,0.031010,-0.044908,-0.065664,0.009291,-0.055681},
	{0.009385,0.025194,0.180818,0.189817,-0.007657,-0.323058,-0.078449,0.086353,0.115317,-0.071029,-0.147442,0.067350,0.261574,0.043761,-0.039968,0.132615,0.073005,-0.012566,-0.030144,0.023587,-0.152873,0.012240,0.009616,-0.013712,0.333575,0.201283,0.005919,-0.185200,0.088000,0.046253,-0.051376,-0.055655,-0.234043,-0.089537,-0.044106,0.101716,-0.020319,-0.014000,-0.223733,-0.085808,0.088743,-0.038161,-0.001899,0.012616,-0.032277,0.182225,0.162595,-0.045708,-0.002794,-0.265020,0.041684,-0.002298},
	{-0.015705,0.056183,0.263112,-0.102797,-0.042337,-0.026043,0.069819,-0.009778,0.086097,-0.172517,-0.082643,-0.106956,0.206807,0.099434,-0.008507,0.197167,0.000405,-0.021232,-0.099640,0.008282,-0.273200,0.082453,0.016218,0.046327,0.100540,0.054029,-0.029473,-0.047959,0.086287,0.088295,-0.138342,-0.066605,-0.258865,-0.280299,-0.026076,0.091970,-0.118249,0.063647,-0.206741,-0.051885,-0.104993,-0.007146,-0.167630,-0.002649,-0.025063,0.043130,0.201105,0.031951,0.115800,-0.052817,0.083867,0.172072},
	{0.006243,-0.009876,0.104842,-0.100615,-0.005326,0.244185,0.028034,-0.121368,-0.182072,-0.174076,-0.009986,-0.026749,-0.004665,0.148896,0.149287,0.172294,-0.066158,0.057962,0.079478,0.030976,-0.181559,-0.024037,-0.086380,0.101159,-0.299941,-0.054609,0.003936,0.136053,0.160087,0.031045,-0.067260,-0.203478,-0.146555,-0.108516,-0.006339,-0.023102,0.072020,0.080073,0.038796,-0.032821,-0.065955,0.040612,-0.136280,0.042944,0.053251,-0.106431,0.150750,-0.003027,0.146272,0.155960,-0.077733,0.159832},
	{-0.037624,-0.049567,0.054112,-0.269935,0.027220,0.240737,0.046721,-0.111674,-0.119007,0.065137,0.085421,-0.079599,-0.137970,0.023973,0.041640,-0.147012,-0.106962,0.057244,0.066555,0.031962,0.076275,-0.030467,-0.001331,0.073753,-0.299150,-0.078075,-0.052690,0.145220,-0.095017,0.003770,0.043801,-0.119092,0.029495,0.091284,0.050697,-0.140433,0.076359,0.027277,0.142673,0.058323,-0.123589,0.022163,-0.045284,-0.060473,0.156856,-0.199419,0.039316,0.076315,-0.064500,0.195875,-0.040399,-0.028876},
	{-0.043254,-0.090058,-0.188643,-0.215720,-0.014369,-0.006585,-0.027648,-0.054615,0.088351,0.186012,0.029828,0.011352,-0.127786,0.000695,-0.087306,-0.237451,0.144105,0.024717,-0.061604,0.077173,0.230395,-0.064644,0.026562,-0.063065,0.000782,-0.021880,-0.003311,0.039918,-0.164487,-0.002665,0.176004,0.045180,0.101403,0.223655,0.018672,-0.105687,0.071958,-0.018577,0.157916,-0.062993,-0.035083,0.088662,0.106136,0.011322,0.060697,-0.045436,-0.089341,0.026469,-0.124570,-0.059813,-0.045779,-0.265887},
	{0.001799,-0.029422,-0.094064,0.009367,-0.042509,-0.292973,0.023577,-0.106868,0.230809,0.166873,-0.126383,0.141434,-0.132903,-0.098975,-0.100994,-0.154129,0.132342,-0.033037,-0.047631,0.102724,0.099546,0.038765,0.041798,-0.103420,0.274474,0.135120,-0.058338,-0.147326,-0.143441,0.107106,0.060279,0.085745,0.279094,0.085724,-0.076314,-0.072204,0.021558,-0.048973,0.063152,0.000909,0.145251,-0.041760,0.079098,0.005210,0.113015,0.098778,-0.150728,0.054746,-0.155232,-0.339623,0.041013,-0.150307},
	{-0.017903,-0.062839,-0.025298,0.047129,0.019201,-0.138956,0.083290,0.040447,0.196935,-0.092642,-0.115907,0.018509,0.022200,-0.141706,-0.105690,0.001679,0.022145,-0.051783,-0.121358,0.016202,-0.021996,-0.038275,-0.071309,-0.014646,0.216736,0.074068,0.095550,-0.163337,0.061528,0.067380,0.005895,0.186745,0.195027,-0.084514,-0.027477,0.084734,-0.114267,-0.007354,0.031377,0.042162,0.019217,-0.055429,0.030174,0.149157,-0.026634,0.171845,-0.182966,0.063431,0.011830,-0.261445,0.043923,0.003244},
	{0.141348,0.023897,0.087557,0.122738,-0.001103,-0.031578,-0.052268,0.146921,0.045651,-0.275433,-0.023003,0.060199,0.022897,-0.124818,0.118506,0.130789,-0.067353,0.071339,-0.029147,-0.006140,-0.060427,-0.009990,-0.021908,-0.010435,-0.035519,0.071400,-0.020252,-0.006613,0.162223,0.010659,-0.145651,0.174330,0.104687,-0.094868,-0.023328,0.252930,-0.158360,0.019739,-0.131011,-0.073123,-0.039319,0.001434,-0.147676,0.216415,-0.164264,0.002259,-0.109962,0.024063,0.076641,-0.027947,0.067692,0.291882},
	{0.001096,0.048798,0.233504,0.245006,0.039549,0.121593,-0.011349,0.167524,-0.121019,-0.181677,0.113589,0.032855,0.073218,-0.052248,0.022265,0.172536,-0.107225,0.039365,0.035038,-0.016082,-0.172809,-0.026467,-0.055760,0.056956,-0.168467,0.001470,0.007577,-0.011769,-0.069046,0.015511,-0.027301,0.018283,0.111643,-0.179072,-0.059006,0.074773,-0.173773,-0.018837,-0.108436,0.006386,-0.016207,0.007526,-0.009573,0.153423,-0.091036,-0.022349,-0.169423,-0.093074,0.062077,0.178467,-0.022152,0.239410},
	{0.052843,-0.082070,0.111734,0.222769,0.041992,0.198308,0.035138,0.018203,-0.303632,0.064294,0.057511,-0.067995,0.006171,0.008283,-0.019532,-0.026890,-0.015266,-0.026447,0.159554,-0.036711,-0.048079,-0.011685,0.010611,-0.139102,-0.266827,-0.136996,0.059656,0.035339,-0.162469,-0.059052,0.162238,0.004461,0.017433,-0.076332,0.013290,-0.039546,0.021157,-0.019484,-0.016818,0.032716,-0.046007,0.009171,0.010756,-0.048716,-0.112268,-0.176160,-0.076658,0.046318,-0.069303,0.269654,-0.208686,-0.065969},
	{-0.009934,-0.021610,-0.059307,0.214339,0.037662,0.117364,0.001374,-0.114846,-0.088113,0.195443,0.112993,-0.060439,0.020841,0.123000,-0.129071,-0.097018,-0.019163,-0.002021,0.075413,0.012961,0.051384,0.052120,-0.022512,-0.050219,-0.082316,0.002523,-0.066228,-0.017355,-0.175575,0.009946,0.162276,-0.164990,-0.224966,0.060999,0.019893,-0.206921,0.229636,-0.008656,-0.004139,-0.020831,0.055324,0.046652,0.101105,-0.123014,0.004585,-0.069787,0.163673,0.002965,-0.023636,0.106464,-0.129445,-0.224635},
	{0.001082,0.075519,-0.030003,0.101005,0.037306,-0.204703,-0.058934,-0.191338,0.170159,0.288116,-0.077395,0.007596,0.075082,0.179697,-0.095535,0.036521,0.092966,0.007596,0.081600,0.102224,0.129636,-0.020053,0.008183,-0.049626,0.168766,0.152407,0.009550,-0.140515,0.015448,0.009867,0.056736,-0.055857,-0.171787,-0.046165,0.000878,-0.247996,0.194897,-0.108292,-0.006675,-0.001360,0.017209,-0.082479,0.099965,-0.042487,0.116808,0.177189,0.203565,0.049523,-0.127977,-0.204563,0.013917,-0.284259},
	{0.080530,0.073563,-0.119465,-0.074582,0.019518,-0.083364,0.039597,-0.095812,0.216934,0.035708,-0.090897,0.126585,0.006051,0.188420,0.006885,-0.053064,-0.088018,0.045093,-0.099156,0.022029,0.070494,0.023298,0.030426,0.060667,0.050129,0.093976,-0.040473,-0.000904,0.219438,0.062472,-0.130570,-0.078428,-0.206312,-0.064544,-0.018213,-0.021827,0.017834,-0.039707,-0.000113,-0.082850,-0.047591,0.003118,-0.029925,0.014456,0.160978,0.020182,0.206775,-0.069518,0.084660,-0.263949,0.124295,-0.073085},
	{-0.023370,-0.007163,-0.039490,-0.176859,-0.086843,-0.152997,0.029540,-0.044191,0.210326,-0.211519,-0.066007,-0.009945,-0.119458,0.089557,0.119424,0.064745,-0.034052,-0.002369,-0.097923,-0.024180,-0.032491,-0.005064,-0.045113,-0.017824,0.128136,0.099326,-0.012904,-0.101361,0.266949,-0.012288,-0.325711,-0.095218,-0.120306,0.036359,-0.021755,0.270986,-0.143800,-0.020989,0.050058,-0.084860,-0.044207,-0.003032,-0.093401,-0.045088,0.037926,-0.011520,0.125720,0.024414,0.070039,-0.213472,0.120323,0.156088},
	{-0.031244,-0.035441,0.063982,-0.214497,-0.003902,-0.005742,0.023996,0.065546,0.003497,-0.226953,0.160399,-0.074723,-0.165363,-0.113760,0.089785,-0.062354,-0.036515,-0.010291,-0.078965,0.001095,0.040812,-0.039819,-0.063537,-0.054549,0.017142,-0.095525,0.018237,0.106716,0.076801,0.002058,-0.024188,0.091875,0.014110,0.025203,0.027528,0.267114,-0.267394,-0.036290,0.180588,0.023141,-0.048399,-0.021362,-0.037902,0.000075,-0.070735,-0.118870,0.046043,-0.055703,0.045717,0.056485,0.006944,0.282175},
	{0.089462,-0.007084,0.057532,-0.199406,-0.080159,-0.059853,-0.036246,0.192185,-0.176375,-0.054106,0.090012,0.015026,-0.109398,-0.097041,-0.032444,0.020133,0.077402,0.005445,-0.014863,0.025236,-0.084581,-0.072393,-0.005331,0.025793,0.010834,-0.147130,-0.132418,0.086112,-0.225105,-0.043283,0.200733,0.113434,0.159235,0.065662,0.026009,0.129699,-0.077181,-0.107639,0.095054,-0.070548,0.117318,0.020443,0.173746,-0.030878,-0.221611,-0.111666,-0.092374,-0.024027,-0.049432,0.200198,-0.014739,0.077439},
	{0.067631,-0.056150,0.073434,-0.024949,0.043545,0.048134,0.016569,0.108654,-0.090152,0.295552,-0.003315,-0.040910,0.026046,-0.078419,-0.120744,-0.058776,0.207015,0.018794,0.142419,0.007360,-0.065739,0.038215,0.000471,-0.086019,0.064066,-0.030829,-0.041597,-0.052813,-0.200132,-0.041057,0.162824,0.097150,0.214382,-0.038982,-0.003686,-0.196454,0.268950,-0.043134,0.049734,-0.082307,0.052801,0.050740,0.127448,0.153867,-0.141609,0.105288,-0.093746,0.061316,-0.170811,0.086422,-0.063475,-0.227760}
	};
	float L2_weight[52][104]={{-0.001643,-0.003649,-0.001067,0.004289,0.004637,0.003668,-0.009199,-0.000047,0.001642,-0.001719,0.000178,-0.008886,0.002975,0.007917,-0.005425,0.007114,-0.001373,-0.005098,-0.005709,-0.004208,0.003038,0.007013,0.000464,0.010950,0.009242,0.013152,-0.000299,-0.006174,-0.002345,0.004597,-0.003467,0.002936,0.005698,-0.001299,0.000091,-0.002134,0.003449,0.003480,-0.005256,-0.006183,-0.004293,-0.004836,0.007371,-0.000857,0.006201,0.006006,-0.001396,-0.001289,-0.001774,0.004920,-0.004124,-0.003788,-0.000255,0.004543,0.007587,-0.005311,-0.003476,-0.005958,0.000035,0.003700,-0.001753,-0.004197,-0.006006,0.003536,-0.003451,0.004270,0.004612,-0.005257,0.001223,-0.002468,0.001886,0.007193,-0.000657,0.004173,0.005452,0.005203,0.012555,-0.020118,-0.003448,0.001128,0.012790,-0.002728,-0.009553,-0.005199,-0.003348,-0.004219,0.010490,-0.002025,0.002287,0.001449,-0.004697,-0.005059,0.003114,-0.006628,0.004572,-0.003688,-0.012701,-0.005943,0.000655,0.000229,0.005535,-0.004192,0.001168,-0.001587},
	{0.002553,0.003274,0.002489,-0.007346,-0.004676,-0.003119,-0.001995,-0.000878,0.004523,0.004908,0.003504,0.002544,-0.007019,-0.008680,-0.002604,-0.006735,-0.003614,0.001840,0.007559,0.004701,0.004321,-0.000731,-0.006070,-0.007976,-0.005024,0.007497,-0.009479,-0.006737,0.004275,0.000937,0.008118,0.004565,0.003306,0.001358,-0.006055,-0.008011,-0.002340,-0.002154,0.006654,0.009040,0.007232,-0.000611,-0.006535,-0.007064,-0.005407,0.000918,0.007334,0.002441,-0.003483,-0.005027,-0.006140,-0.000734,0.004895,-0.004680,-0.005929,-0.000969,-0.003378,0.003303,0.004267,0.001294,0.002843,-0.000711,-0.005424,-0.006878,-0.003756,-0.001548,-0.000048,0.005181,0.003357,0.005281,0.003180,-0.000008,-0.005101,-0.002095,-0.005102,0.000579,0.013510,0.008704,0.001670,0.001838,0.006470,0.008678,-0.000006,0.003365,-0.006426,-0.006354,-0.005053,-0.004146,0.002348,0.010506,0.006625,-0.000375,-0.006814,-0.008102,-0.005277,0.004636,0.007406,0.005759,0.002040,-0.000011,-0.009354,0.001545,0.005347,0.005629},
	{0.037414,0.024097,-0.015542,-0.051142,-0.047163,-0.000554,0.053390,0.067045,0.022363,-0.044611,-0.076755,-0.044850,0.028043,0.079293,0.065505,-0.001564,-0.070303,-0.084908,-0.035101,0.039263,0.087531,0.076313,0.013736,-0.057652,-0.096348,-0.076852,-0.003169,-0.133554,-0.162690,-0.064752,0.077436,0.154318,0.110237,-0.014875,-0.114557,-0.116800,-0.033374,0.062115,0.094343,0.051856,-0.016978,-0.056943,-0.046372,-0.007590,0.023141,0.029433,0.017333,0.000533,-0.012930,-0.021025,-0.019751,-0.003657,-0.002321,-0.035741,-0.045510,-0.016391,0.033971,0.063071,0.039495,-0.021159,-0.068934,-0.060764,0.001633,0.065186,0.075257,0.022531,-0.052092,-0.085500,-0.050729,0.023048,0.081612,0.080600,0.022205,-0.050064,-0.091288,-0.074853,-0.008872,0.065554,-0.167759,-0.100414,0.042005,0.151264,0.142587,0.023976,-0.103071,-0.141913,-0.071437,0.045060,0.110802,0.084520,0.002559,-0.065140,-0.070629,-0.024942,0.024640,0.042968,0.027490,0.000341,-0.017416,-0.021345,-0.015819,-0.003367,0.013912,0.027584},
	{-0.044001,-0.007459,0.029378,0.054290,0.059471,0.045990,0.020389,-0.009263,-0.035354,-0.053270,-0.060331,-0.051366,-0.020530,0.026805,0.070555,0.088718,0.067980,0.017106,-0.032806,-0.058860,-0.061203,-0.055328,-0.053426,-0.046089,-0.008647,0.069383,0.025308,-0.057610,-0.081775,-0.065022,-0.046317,-0.042056,-0.037324,-0.010548,0.036352,0.077435,0.085750,0.053291,0.000399,-0.042288,-0.060069,-0.056460,-0.041865,-0.022622,0.001885,0.032059,0.059126,0.067151,0.047250,0.006390,-0.038034,-0.066578,0.051142,0.065189,0.055934,0.029544,-0.004544,-0.035239,-0.052692,-0.054243,-0.042821,-0.021031,0.009488,0.043550,0.070431,0.076024,0.048571,-0.005598,-0.058427,-0.084002,-0.073186,-0.038308,-0.005551,0.013921,0.032561,0.066102,0.104927,0.112712,-0.148463,-0.104179,-0.039218,0.002443,0.016326,0.024822,0.045400,0.069568,0.072161,0.037144,-0.020307,-0.066864,-0.080056,-0.059245,-0.022420,0.010135,0.032016,0.046806,0.055009,0.049828,0.025568,-0.013791,-0.053159,-0.072619,-0.061498,-0.026500},
	{0.001282,-0.005543,-0.006183,-0.001809,0.001183,0.004632,0.003877,-0.000429,-0.001765,-0.004063,-0.002395,0.000836,0.002128,-0.001181,-0.000918,0.000310,0.002600,0.000611,-0.000959,0.000561,-0.003042,0.004167,-0.001071,-0.004653,-0.006290,-0.007811,-0.002697,-0.005094,-0.010260,-0.000278,0.003172,0.004080,0.000190,-0.002503,-0.003110,0.000989,0.003136,0.001925,0.000592,-0.002725,-0.000551,0.000584,-0.002702,0.003006,0.003279,-0.000985,-0.001773,-0.003520,-0.003409,-0.004089,0.001937,0.003316,-0.006623,-0.003570,0.001530,0.004547,0.008259,0.000420,-0.000044,-0.003624,-0.002533,0.000712,0.002231,-0.000870,0.001093,0.000042,-0.000531,0.001564,0.000417,-0.002717,-0.005941,-0.000296,-0.000660,0.000100,-0.001113,-0.004528,0.002385,0.003676,-0.013000,-0.003322,0.003767,0.003227,0.006450,-0.000340,-0.001881,-0.001867,-0.000365,0.000639,0.000234,-0.001088,-0.002712,0.000806,-0.000606,0.002210,0.003967,-0.000011,-0.001094,-0.001079,-0.003758,-0.002068,0.000958,0.003304,0.006001,0.001148},
	{0.006965,0.033223,0.044977,0.019877,-0.030789,-0.064478,-0.046123,0.017199,0.071440,0.064927,0.000438,-0.067519,-0.077626,-0.019512,0.053054,0.078455,0.038214,-0.029158,-0.063417,-0.044946,-0.000113,0.030870,0.030278,0.015639,0.008802,0.007494,0.061296,0.082806,0.026946,-0.051168,-0.076028,-0.027248,0.047605,0.073751,0.025691,-0.047120,-0.074929,-0.030041,0.044369,0.076942,0.040102,-0.030644,-0.071685,-0.050221,0.007110,0.049060,0.047449,0.014983,-0.014967,-0.024438,-0.021222,-0.017400,0.031149,0.020747,-0.013922,-0.049645,-0.051599,-0.006358,0.052392,0.070961,0.027829,-0.044434,-0.081114,-0.046348,0.029124,0.079869,0.061635,-0.008291,-0.065259,-0.064912,-0.015142,0.037223,0.049767,0.026197,-0.002077,-0.013530,-0.013003,-0.017515,0.060878,-0.019101,-0.077022,-0.061525,0.012460,0.071240,0.057478,-0.012065,-0.069958,-0.058364,0.011343,0.070099,0.063179,-0.002695,-0.065713,-0.068541,-0.013906,0.046923,0.063675,0.029804,-0.017226,-0.039501,-0.030929,-0.010678,0.003400,0.011458},
	{-0.011945,-0.004865,-0.001084,0.014297,0.014811,0.009937,-0.010549,-0.004528,-0.009093,-0.013815,0.005457,0.002500,-0.005996,0.006363,-0.001190,0.002286,0.002546,-0.000526,-0.003810,-0.004132,-0.014077,-0.005882,-0.020786,-0.014777,0.012285,0.018537,-0.015017,-0.010132,-0.009758,-0.011153,-0.017158,-0.009822,0.021966,-0.003597,0.003587,0.006532,0.015867,0.002527,-0.011855,-0.009892,-0.002838,-0.008628,-0.004528,-0.008672,0.000012,0.008220,-0.004540,-0.007299,0.001402,0.008451,0.002970,0.001416,-0.001553,0.016298,0.022300,-0.005322,0.001540,-0.016487,-0.012082,-0.007823,-0.001095,-0.007677,0.001720,0.004655,0.001116,0.002881,0.008496,-0.004327,-0.000473,-0.011272,-0.014277,-0.004928,-0.018013,0.004583,0.018353,0.012512,0.049365,0.015004,-0.022847,-0.017650,0.002083,-0.011918,0.001130,-0.001424,0.013000,0.010765,0.018666,-0.004924,-0.014961,0.000277,0.000266,-0.002655,0.001931,-0.013084,0.002880,0.000278,0.003773,-0.002364,0.001582,0.006921,0.014185,0.007620,0.005231,-0.007671},
	{0.067890,-0.022351,-0.098788,-0.107021,-0.041152,0.051579,0.110762,0.097887,0.020778,-0.068476,-0.114997,-0.092616,-0.013263,0.074055,0.117153,0.094353,0.016904,-0.071503,-0.118070,-0.100168,-0.028085,0.060759,0.115105,0.108065,0.046248,-0.041283,-0.003280,0.105895,0.152554,0.106706,0.002580,-0.096389,-0.135457,-0.095112,-0.007224,0.074454,0.110598,0.087345,0.021296,-0.050600,-0.094460,-0.089556,-0.035123,0.040716,0.094813,0.094132,0.033514,-0.052010,-0.104761,-0.088322,-0.011078,0.076423,-0.088668,-0.110202,-0.054468,0.038252,0.106109,0.102483,0.029542,-0.061660,-0.113436,-0.094374,-0.015379,0.072433,0.116136,0.092722,0.013963,-0.073716,-0.117928,-0.096981,-0.021662,0.067259,0.117177,0.103790,0.036249,-0.051966,-0.112100,-0.113387,0.154434,0.109684,0.002948,-0.102845,-0.145926,-0.101261,-0.003667,0.086594,0.122931,0.090046,0.013388,-0.061736,-0.100604,-0.087391,-0.029247,0.043110,0.092700,0.092403,0.036962,-0.043890,-0.099436,-0.093108,-0.024582,0.063535,0.109033,0.079658},
	{-0.080933,0.005464,0.068359,0.068621,0.026501,-0.010879,-0.020077,-0.012468,-0.011925,-0.023824,-0.031303,-0.015389,0.022749,0.057806,0.063557,0.032007,-0.025470,-0.079839,-0.097802,-0.062612,0.020838,0.114299,0.151471,0.093184,-0.040154,-0.170874,0.081888,0.016287,-0.025240,-0.016283,0.005744,-0.003356,-0.040548,-0.056267,-0.014113,0.058728,0.093469,0.044213,-0.054241,-0.110252,-0.067472,0.043454,0.122379,0.091100,-0.024966,-0.125220,-0.119539,-0.009360,0.107682,0.134344,0.054056,-0.062801,0.074782,0.098433,0.050007,-0.015413,-0.047802,-0.037865,-0.013978,-0.004146,-0.007843,-0.004876,0.016574,0.042741,0.049154,0.022964,-0.026219,-0.069180,-0.078521,-0.045304,0.022278,0.093872,0.122837,0.080428,-0.025829,-0.141212,-0.178325,-0.095488,-0.037793,-0.063332,-0.031530,0.000970,-0.003695,-0.027321,-0.021907,0.026038,0.074058,0.062612,-0.014225,-0.090354,-0.091705,-0.005580,0.094090,0.111121,0.025494,-0.090709,-0.131462,-0.054270,0.072713,0.140159,0.090860,-0.032860,-0.123554,-0.111997},
	{0.093862,0.089760,0.001580,-0.090151,-0.099733,-0.022881,0.068633,0.094821,0.037510,-0.041298,-0.069653,-0.030634,0.029386,0.047046,0.009981,-0.038413,-0.045744,-0.000861,0.051642,0.061229,0.017084,-0.044804,-0.071066,-0.044126,0.011302,0.053974,-0.034046,-0.021622,0.008077,0.025027,0.011876,-0.016307,-0.026256,-0.000273,0.037910,0.045149,0.002896,-0.057849,-0.075980,-0.024320,0.058242,0.099173,0.053559,-0.042601,-0.102378,-0.071555,0.024758,0.097082,0.076320,-0.015825,-0.093025,-0.080662,0.045268,-0.057103,-0.107488,-0.060798,0.039667,0.103392,0.073905,-0.014149,-0.079042,-0.067964,-0.000095,0.052715,0.044199,-0.007629,-0.045102,-0.027555,0.024437,0.056583,0.034415,-0.025368,-0.067300,-0.055329,-0.000254,0.054180,0.065819,0.032807,-0.005270,0.023249,0.027082,0.004313,-0.020438,-0.018070,0.011065,0.034864,0.020955,-0.026829,-0.062049,-0.042220,0.025565,0.084739,0.073822,-0.006118,-0.086657,-0.095252,-0.018182,0.076004,0.099448,0.031830,-0.065121,-0.099224,-0.036646,0.061017},
	{-0.016137,-0.011319,0.000057,0.010977,0.015969,0.010576,-0.003794,-0.010808,-0.011212,-0.005911,0.005608,0.007708,0.004578,0.001526,-0.004402,-0.002650,-0.001026,-0.001755,0.000967,0.002083,0.004628,0.003619,-0.001065,-0.007953,-0.010113,-0.005702,-0.000120,-0.003569,-0.004599,-0.003162,-0.000367,0.000231,-0.000534,-0.001426,-0.001678,0.001142,0.001319,0.002641,0.002027,-0.000406,-0.000626,-0.000845,0.000734,-0.001396,-0.001604,-0.003633,-0.004969,0.001552,0.007434,0.010746,0.009607,0.000858,-0.000663,0.010173,0.016248,0.011497,-0.001970,-0.011235,-0.014471,-0.008434,0.005038,0.009675,0.007692,0.003574,-0.005478,-0.005194,-0.001803,-0.000903,0.002533,0.001791,0.002069,0.003043,0.000470,-0.004970,-0.008832,-0.003743,0.000259,0.008699,-0.006182,-0.005771,-0.000018,0.002309,0.001510,0.000673,-0.000623,0.000619,0.001656,0.002649,0.002369,-0.001138,-0.001048,-0.002268,-0.001010,-0.000493,-0.000220,-0.000959,-0.002763,0.001514,0.004669,0.007165,0.007504,0.000856,-0.009634,-0.013911},
	{0.010156,0.004321,-0.003090,-0.009145,-0.004272,0.004372,0.001062,-0.006515,-0.010034,-0.009415,0.003128,0.012644,0.017102,0.005053,-0.005639,-0.012996,-0.013810,0.000734,0.001254,0.002122,-0.000467,-0.000942,0.003774,0.015450,0.011395,0.002692,-0.013243,-0.013809,-0.013369,0.002451,0.014012,0.016284,0.012454,0.003949,0.002188,-0.000277,-0.004131,-0.011469,-0.009524,-0.006651,0.002185,0.012220,0.010161,0.004552,-0.000789,-0.006187,-0.002737,-0.001876,-0.001853,-0.006313,-0.007787,-0.001285,-0.001841,-0.009540,-0.007230,-0.001156,0.003556,0.000668,-0.002191,-0.007918,0.000973,0.010411,0.015663,0.005990,-0.004413,-0.013645,-0.016606,-0.000534,0.004827,0.008379,0.007177,-0.002705,0.000269,0.008624,0.006434,0.002532,-0.006706,-0.017787,-0.012357,0.003357,0.015644,0.014749,0.014450,-0.000183,-0.007224,-0.009726,-0.007504,-0.008478,-0.007995,-0.004855,0.002522,0.014904,0.010391,0.005087,-0.001144,-0.011592,-0.009922,-0.002048,0.000082,-0.000820,-0.003332,-0.001959,0.007072,0.008441},
	{0.078109,0.178001,0.174161,0.065444,-0.076241,-0.162738,-0.151055,-0.056771,0.056834,0.122494,0.115022,0.051079,-0.028948,-0.079847,-0.080475,-0.040705,0.012422,0.045520,0.041729,0.013706,-0.011766,-0.012953,0.007400,0.023708,0.014017,-0.021030,-0.039237,0.011049,0.079932,0.124436,0.101621,0.006510,-0.114779,-0.179190,-0.133357,-0.002657,0.133110,0.188057,0.129524,0.005381,-0.106150,-0.150812,-0.118862,-0.041706,0.040494,0.103333,0.130356,0.105416,0.026773,-0.079028,-0.160169,-0.159882,0.172723,0.067064,-0.078892,-0.174657,-0.165868,-0.061118,0.068733,0.144323,0.133225,0.053598,-0.042614,-0.100298,-0.097577,-0.047463,0.018422,0.061813,0.062335,0.029444,-0.010727,-0.029604,-0.018136,0.004913,0.013412,-0.004446,-0.032329,-0.039819,0.067264,0.090685,0.072456,0.001123,-0.096994,-0.155782,-0.122591,-0.005975,0.128384,0.190478,0.134614,0.001001,-0.125867,-0.173448,-0.122722,-0.018763,0.076217,0.125681,0.121151,0.072049,-0.004451,-0.087393,-0.144628,-0.136366,-0.049588,0.076942},
	{-0.149911,-0.100501,-0.008866,0.083451,0.134618,0.126861,0.067424,-0.019858,-0.097917,-0.133203,-0.113418,-0.045611,0.044890,0.117140,0.139032,0.102156,0.017812,-0.078651,-0.140816,-0.142587,-0.080902,0.022937,0.119301,0.162547,0.133890,0.040088,-0.176129,-0.105005,0.018265,0.132642,0.182916,0.149213,0.045002,-0.080781,-0.164784,-0.170965,-0.099706,0.017058,0.122898,0.169112,0.139871,0.048779,-0.064328,-0.146168,-0.161256,-0.104588,0.000680,0.105770,0.159808,0.140024,0.056728,-0.051996,0.021924,0.110681,0.145222,0.116022,0.039095,-0.052665,-0.118647,-0.132699,-0.092570,-0.013392,0.073084,0.128071,0.129098,0.075536,-0.014229,-0.100513,-0.142943,-0.124702,-0.049973,0.052402,0.132832,0.155340,0.109273,0.008370,-0.100635,-0.163844,0.050278,0.152146,0.182533,0.129638,0.013932,-0.108644,-0.177014,-0.163084,-0.073868,0.049886,0.146515,0.172886,0.121883,0.016343,-0.095031,-0.160052,-0.153168,-0.078678,0.032364,0.127920,0.163616,0.125317,0.029373,-0.080239,-0.149589,-0.148250},
	{-0.007271,-0.013377,-0.016195,-0.006773,0.002433,0.012246,0.015405,0.008083,-0.001171,-0.011364,-0.013621,-0.008806,0.002885,0.007908,0.006196,0.002056,-0.007182,-0.005593,0.003160,0.005919,0.010283,0.002900,-0.007847,-0.008829,-0.009222,-0.000036,0.006851,0.009369,0.009797,-0.002790,-0.022295,-0.013477,-0.006370,0.002281,0.012262,0.016044,0.001298,-0.004941,-0.015307,-0.019172,0.002060,0.010451,0.018857,0.017124,-0.001424,-0.018574,-0.019267,-0.016306,-0.004035,0.013579,0.016149,0.016217,-0.016412,-0.007578,0.004341,0.012559,0.015877,0.007162,-0.001534,-0.012130,-0.014832,-0.008860,0.001605,0.009771,0.011252,0.006447,-0.004777,-0.006505,-0.000274,0.002550,0.009244,0.004485,-0.005538,-0.007886,-0.010297,-0.001464,0.008875,0.009364,0.009894,-0.004429,-0.017838,-0.012046,-0.008465,0.001814,0.013804,0.014464,0.003891,-0.003412,-0.013199,-0.018239,0.000897,0.007016,0.017118,0.018278,-0.002253,-0.015532,-0.020021,-0.016511,-0.001312,0.016450,0.017728,0.016203,0.007203,-0.010819},
	{0.007508,-0.004010,-0.021198,-0.021406,0.006431,0.040910,0.044959,0.002594,-0.054226,-0.068754,-0.020190,0.053672,0.083156,0.034504,-0.046187,-0.081496,-0.034393,0.049256,0.078754,0.020048,-0.071791,-0.096679,-0.012586,0.105124,0.140620,0.038926,0.146058,0.078423,-0.031332,-0.079021,-0.041177,0.021543,0.039522,0.000012,-0.043984,-0.039710,0.010914,0.057660,0.053096,0.003495,-0.043961,-0.049930,-0.016211,0.020168,0.029129,0.013092,-0.005037,-0.008843,-0.002928,0.000389,-0.001421,-0.000717,-0.006757,-0.014939,-0.005597,0.019815,0.036522,0.018367,-0.028147,-0.060010,-0.040204,0.023864,0.075768,0.060790,-0.011513,-0.076305,-0.069666,0.005553,0.072260,0.062794,-0.016639,-0.083608,-0.058865,0.039973,0.117134,0.081546,-0.052723,-0.161106,0.007478,-0.098126,-0.097424,-0.020182,0.046740,0.042450,-0.009388,-0.041115,-0.016790,0.036267,0.057977,0.024026,-0.033371,-0.061192,-0.036156,0.013035,0.041334,0.031133,0.001151,-0.017432,-0.014036,-0.001950,0.003302,0.000838,0.000096,0.003395},
	{0.008070,-0.004037,-0.014670,-0.019396,-0.014976,0.006682,0.022101,0.024250,0.014523,-0.010160,-0.022254,-0.020539,-0.010513,0.004269,0.012231,0.012560,0.010119,0.005243,-0.000723,-0.004986,-0.006518,-0.004119,-0.000432,0.000225,0.000323,-0.001897,0.005760,-0.009394,-0.012385,-0.009886,-0.005477,0.004637,0.010027,0.012882,0.009847,0.001667,-0.009710,-0.015537,-0.014983,-0.003317,0.016577,0.022297,0.018043,-0.001047,-0.018101,-0.024852,-0.011389,-0.002060,0.004095,0.006648,0.004986,0.006681,-0.010484,-0.015005,-0.011772,0.004925,0.018879,0.022538,0.016128,-0.009287,-0.023471,-0.023608,-0.012171,0.008148,0.018290,0.016243,0.010029,0.000589,-0.005910,-0.008726,-0.009439,-0.006948,-0.001100,0.002066,0.002897,0.001010,-0.000061,0.001097,-0.012740,-0.009108,-0.005117,0.007673,0.011639,0.011583,0.007130,-0.001194,-0.009290,-0.013751,-0.012488,-0.003341,0.011850,0.018550,0.017089,0.001115,-0.020382,-0.024953,-0.016127,-0.000105,0.011511,0.018634,0.007461,0.003925,0.003047,0.002648},
	{-0.004527,-0.010869,-0.013322,0.000467,0.008249,0.008547,0.009601,-0.009828,-0.009028,-0.008524,-0.001981,0.007916,0.008111,0.005552,-0.001791,-0.004440,-0.004834,-0.001638,-0.001547,-0.003224,-0.005724,0.006004,0.002629,0.001762,-0.002953,-0.011242,0.007530,-0.000733,-0.009235,-0.006370,-0.002592,-0.001163,0.001165,-0.003824,-0.000713,0.002787,0.005988,0.008030,0.001082,-0.004493,-0.006939,-0.002997,-0.001669,0.004159,0.006335,0.002439,0.000063,-0.004956,-0.006653,-0.001436,0.009616,0.014812,-0.015899,-0.003917,0.007460,0.009807,0.011812,-0.007291,-0.009048,-0.008408,-0.006237,0.009150,0.009001,0.007849,-0.001579,-0.007065,-0.007719,-0.002802,0.001504,0.000011,-0.002977,0.003483,0.002635,0.003823,0.002155,-0.009716,-0.002202,0.001570,-0.011239,-0.010192,-0.004518,-0.000673,0.005867,0.000996,0.000959,0.001892,0.002611,0.007624,0.000721,-0.003887,-0.007088,-0.004503,-0.001010,0.004791,0.007034,0.002831,0.001448,-0.004230,-0.006653,-0.002441,0.003331,0.009008,0.006280,-0.001406},
	{-0.036724,0.030364,0.098257,0.134756,0.110256,0.025201,-0.086437,-0.167476,-0.164965,-0.073979,0.059335,0.169076,0.195242,0.119873,-0.015256,-0.144218,-0.204619,-0.159541,-0.033808,0.105770,0.192684,0.179370,0.074219,-0.058868,-0.154514,-0.170356,0.080994,0.145640,0.131759,0.049362,-0.046864,-0.105787,-0.105903,-0.060742,-0.005765,0.035105,0.060283,0.073700,0.070136,0.039100,-0.019984,-0.085913,-0.118315,-0.088749,-0.009237,0.077679,0.124240,0.106195,0.040577,-0.034197,-0.087423,-0.104610,0.101678,0.110607,0.074827,-0.001660,-0.093639,-0.154539,-0.140689,-0.050201,0.075258,0.172282,0.182973,0.097181,-0.038911,-0.159116,-0.202379,-0.141216,-0.009675,0.126080,0.201634,0.172829,0.055550,-0.083510,-0.177040,-0.178376,-0.090053,0.031306,0.129763,0.039665,-0.065712,-0.130568,-0.123059,-0.055593,0.023055,0.072919,0.083740,0.066611,0.037912,0.003603,-0.038517,-0.080929,-0.098284,-0.068090,0.004564,0.085695,0.127318,0.100985,0.023609,-0.060442,-0.110066,-0.106639,-0.061210,0.000795},
	{0.007499,-0.002761,-0.006454,-0.004725,-0.001254,-0.000007,0.006917,0.006992,-0.001698,-0.001766,0.002404,0.004038,0.003842,0.002171,-0.003580,-0.002526,-0.005288,-0.002409,-0.004950,-0.000915,0.004813,0.006085,0.003816,0.001122,-0.004843,0.000356,-0.002587,-0.000155,0.006577,0.008067,0.003052,-0.002729,-0.012430,-0.004565,0.005523,0.000925,0.001417,0.008393,0.001326,-0.003751,0.002315,0.001015,-0.002793,0.002942,0.004416,-0.004767,0.001486,0.002203,-0.000667,0.000105,-0.004377,-0.001650,-0.002127,-0.006070,-0.001694,0.005633,0.004889,0.006311,-0.003243,-0.002579,-0.003883,-0.000250,0.005306,0.004547,-0.004816,-0.007108,-0.005537,0.001992,-0.000174,-0.001795,0.003368,0.004371,0.001164,0.001297,-0.011197,-0.004416,-0.007202,0.001221,0.004544,0.009604,0.000694,-0.002268,-0.005604,-0.010801,0.002420,0.002721,0.003703,0.001989,-0.001283,-0.006809,0.002132,-0.003339,-0.001243,0.003974,0.000492,-0.000827,-0.001445,-0.000237,-0.002929,-0.000722,-0.005584,-0.001285,-0.000056,0.001270},
	{-0.037791,-0.024345,0.015695,0.051644,0.047610,0.000530,-0.053920,-0.067675,-0.022554,0.045048,0.077467,0.045243,-0.028289,-0.080004,-0.066093,0.001573,0.070906,0.085660,0.035409,-0.039627,-0.088326,-0.076993,-0.013833,0.058216,0.097236,0.077517,0.003226,0.134840,0.164237,0.065394,-0.078120,-0.155776,-0.111288,0.014995,0.115602,0.117881,0.033669,-0.062685,-0.095185,-0.052308,0.017144,0.057448,0.046768,0.007656,-0.023310,-0.029681,-0.017501,-0.000599,0.012986,0.021232,0.019986,0.003746,0.002319,0.036087,0.045957,0.016537,-0.034317,-0.063680,-0.039853,0.021390,0.069594,0.061317,-0.001656,-0.065790,-0.075939,-0.022723,0.052538,0.086255,0.051182,-0.023245,-0.082328,-0.081316,-0.022388,0.050555,0.092142,0.075517,0.008908,-0.066190,0.169343,0.101343,-0.042362,-0.152703,-0.143956,-0.024234,0.104009,0.143244,0.072100,-0.045469,-0.111805,-0.085284,-0.002565,0.065733,0.071246,0.025148,-0.024852,-0.043336,-0.027726,-0.000375,0.017512,0.021534,0.016000,0.003468,-0.013998,-0.027865},
	{-0.001005,-0.011938,-0.019707,-0.012883,0.007613,0.012702,0.016155,0.011121,-0.003132,-0.011976,-0.010971,-0.008577,-0.002408,-0.003003,0.005003,0.010688,0.009730,0.001711,-0.003389,-0.008157,-0.003499,0.003598,-0.000412,-0.002335,-0.009264,-0.001455,-0.002688,-0.010166,-0.009455,-0.000634,0.001227,0.005864,0.006566,0.008067,0.001183,-0.002162,-0.009475,-0.012702,-0.001344,0.005251,0.011168,0.006863,0.000192,-0.001932,-0.000704,0.001101,-0.001673,-0.005820,-0.010678,-0.006121,0.004225,0.020091,-0.024660,-0.017342,0.004784,0.011962,0.024847,0.008813,-0.005188,-0.012294,-0.013013,-0.007745,-0.002156,0.003980,0.007941,0.009058,0.006218,0.003708,-0.006197,-0.012465,-0.007195,-0.000155,0.002306,-0.000283,-0.005003,-0.005808,0.007345,0.005479,-0.013533,-0.005973,0.004169,0.009658,0.007787,0.005835,0.002026,-0.003651,-0.007289,-0.010042,-0.003742,0.005965,0.011243,0.009323,0.000181,-0.004475,-0.002910,-0.004218,-0.001151,-0.001433,-0.004822,-0.004112,0.002668,0.013555,0.014356,0.003971},
	{0.007216,0.005991,0.002306,-0.003863,-0.003394,0.001783,0.005061,0.006125,-0.002137,-0.008637,-0.009706,-0.001465,0.007705,0.010405,0.005598,-0.001952,-0.006635,0.000361,0.001394,-0.001074,-0.001520,-0.000430,-0.003803,0.000524,-0.003376,-0.000450,-0.003684,0.000945,-0.000389,0.002488,0.004420,-0.001398,-0.003869,-0.005708,0.000098,0.004089,0.006758,0.002956,-0.000203,-0.006001,-0.000751,0.002149,0.001139,-0.002802,-0.002843,-0.006426,0.000281,0.007501,0.004534,0.001570,-0.005773,-0.010107,0.007683,-0.000247,-0.004954,-0.003337,0.002604,0.006426,0.001570,-0.005277,-0.009380,-0.004384,0.007801,0.009724,0.008178,-0.000788,-0.010065,-0.007420,-0.001419,-0.000216,0.000334,-0.002891,-0.006532,0.000544,-0.001852,-0.000136,0.001369,-0.005274,0.000220,-0.000672,0.006067,-0.000940,-0.001068,-0.003733,-0.001989,0.002955,0.006515,0.005217,-0.001233,-0.005156,-0.003487,-0.000444,0.001202,0.000129,-0.000994,-0.005157,0.000222,0.006373,0.005250,0.002949,-0.003020,-0.009783,-0.001915,0.001167},
	{-0.002597,0.012570,0.015582,0.008525,-0.003621,-0.012857,-0.014678,-0.005897,0.007543,0.007571,0.000542,-0.009618,-0.006271,0.009696,0.014540,0.011448,-0.000629,-0.012466,-0.013586,-0.010596,0.001131,0.008667,0.010763,0.008519,0.007444,0.003737,-0.014071,0.003093,0.002836,0.001144,-0.003090,-0.003079,0.009229,0.010756,0.005263,-0.001503,-0.004905,-0.006025,0.001157,0.001845,-0.001289,-0.008892,-0.002470,0.002047,0.007285,0.011826,0.010373,-0.001116,-0.006918,-0.007969,-0.010292,-0.010643,0.012950,0.009898,-0.002503,-0.016408,-0.014087,-0.007779,0.008199,0.011219,0.009077,-0.003689,-0.008464,-0.003479,0.008898,0.011135,0.005009,-0.014373,-0.016546,-0.010323,0.001828,0.010624,0.014551,0.008057,0.001873,-0.003854,-0.001892,-0.017707,0.006307,0.005128,0.009933,-0.001733,-0.001202,0.010509,0.004108,-0.000374,-0.004946,-0.008457,-0.001522,0.003861,0.001877,-0.004273,-0.003991,-0.003343,0.006320,0.009222,0.006370,-0.004069,-0.006877,-0.008051,-0.009366,-0.004752,-0.000849,0.005159},
	{-0.006719,-0.031968,-0.043288,-0.019128,0.029670,0.062126,0.044451,-0.016564,-0.068846,-0.062586,-0.000444,0.065047,0.074802,0.018803,-0.051125,-0.075581,-0.036791,0.028130,0.061119,0.043284,0.000067,-0.029766,-0.029187,-0.015094,-0.008534,-0.007264,-0.059088,-0.079855,-0.026022,0.049290,0.073269,0.026261,-0.045864,-0.071044,-0.024728,0.045421,0.072180,0.028898,-0.042789,-0.074130,-0.038582,0.029594,0.069089,0.048331,-0.006941,-0.047339,-0.045697,-0.014341,0.014515,0.023587,0.020395,0.016672,-0.029938,-0.019943,0.013418,0.047810,0.049700,0.006122,-0.050487,-0.068392,-0.026837,0.042803,0.078170,0.044678,-0.028053,-0.076947,-0.059379,0.008007,0.062894,0.062526,0.014544,-0.035904,-0.047963,-0.025228,0.002009,0.013029,0.012542,0.016954,-0.058758,0.018360,0.074244,0.059317,-0.011983,-0.068636,-0.055373,0.011637,0.067402,0.056203,-0.010965,-0.067554,-0.060841,0.002657,0.063348,0.066010,0.013320,-0.045282,-0.061352,-0.028636,0.016693,0.038118,0.029760,0.010189,-0.003362,-0.011061},
	{-0.009784,-0.008307,0.000128,0.007382,0.009684,0.007665,-0.003901,-0.009796,-0.010339,-0.002542,0.007224,0.010754,0.014664,0.004643,-0.005615,-0.013825,-0.012451,-0.007223,0.000799,0.011590,0.012476,0.008232,-0.001458,-0.008377,-0.011376,-0.005443,-0.008291,0.008493,0.015825,0.015472,0.004531,-0.010804,-0.015553,-0.011007,0.003130,0.011629,0.014414,0.003434,-0.006471,-0.014208,-0.013905,0.000341,0.011235,0.016255,0.008495,-0.003894,-0.008563,-0.012085,-0.002704,0.001795,0.008950,0.002635,0.000171,0.008044,0.009086,0.007835,-0.003521,-0.009029,-0.009328,-0.005281,0.006775,0.009857,0.012259,0.004735,-0.006491,-0.012365,-0.011394,-0.005075,0.004018,0.010199,0.011191,0.012179,-0.004758,-0.008868,-0.013852,-0.007200,0.001408,0.008442,0.015589,0.015260,0.008522,-0.008900,-0.016088,-0.014163,0.000309,0.011830,0.014859,0.006868,-0.004876,-0.012142,-0.013995,-0.000923,0.008787,0.016411,0.011609,-0.002284,-0.010621,-0.013980,-0.005076,0.001265,0.007435,0.009099,0.000369,-0.005647},
	{-0.002849,0.009564,0.013030,0.013642,-0.009660,-0.008448,-0.013360,-0.007882,0.015043,0.012867,0.006131,-0.006020,-0.009608,-0.005132,-0.000330,-0.002504,-0.011918,-0.008228,-0.004358,0.012932,0.013933,0.016127,0.001819,-0.009821,-0.013693,-0.016693,0.020861,0.026805,0.018873,-0.001730,-0.009548,-0.012508,-0.001817,0.004464,0.000177,-0.000768,0.000191,-0.007072,-0.004529,-0.000616,0.001650,0.008616,0.007208,0.003742,-0.005401,-0.010258,-0.009008,0.000150,0.020937,0.015566,-0.004325,-0.017782,0.013998,0.021870,-0.005016,-0.012472,-0.010419,-0.012401,0.012618,0.013231,0.010248,-0.000793,-0.014444,-0.014384,-0.003532,0.003498,-0.000276,-0.002629,-0.001614,0.010586,0.013071,0.009645,0.004195,-0.011789,-0.016501,-0.012519,-0.003966,0.003715,0.021783,0.007957,-0.012660,-0.023865,-0.013401,0.003079,0.002309,0.002531,0.003976,-0.004779,-0.000499,0.000841,-0.001747,0.009298,0.005921,-0.000147,-0.003651,-0.007516,-0.010132,-0.005685,0.008503,0.018070,0.004248,-0.013277,-0.024589,-0.010339},
	{-0.007359,-0.007690,-0.005909,0.001937,0.004398,0.005154,0.005434,0.000560,-0.000909,-0.003243,-0.008848,-0.003351,0.000677,0.004016,0.006588,-0.000417,-0.005248,-0.004740,0.000611,0.007313,0.009071,0.000806,-0.008746,-0.012218,-0.004439,0.006403,0.004790,0.002016,-0.002509,-0.001674,-0.004179,0.000566,0.002609,0.003150,-0.000444,-0.004660,-0.004938,-0.001912,0.003966,0.004390,0.001309,-0.001175,-0.000826,0.000595,0.002181,-0.000703,-0.005179,-0.004851,-0.001682,0.006582,0.008039,0.007180,-0.006704,0.002060,0.006196,0.006462,0.004902,-0.000965,-0.002320,-0.003693,-0.007140,-0.002355,0.000190,0.003510,0.009135,0.002553,-0.002481,-0.004463,-0.002580,0.003890,0.008183,0.004183,-0.004998,-0.010164,-0.006876,0.003854,0.010235,0.012280,-0.001527,-0.003344,-0.005390,-0.001109,0.001569,0.002452,0.002169,-0.002655,-0.004931,-0.002920,0.002797,0.005510,0.003465,0.000401,-0.003171,-0.001981,0.000734,0.001373,-0.002147,-0.002757,-0.002700,0.003916,0.007147,0.006450,0.000100,-0.007674},
	{-0.057308,0.019308,0.067701,0.038243,-0.032035,-0.062165,-0.017949,0.053708,0.070266,0.007420,-0.070993,-0.082192,-0.006942,0.079502,0.086742,0.007124,-0.080832,-0.083303,0.002091,0.083384,0.074084,-0.023115,-0.103510,-0.075359,0.042117,0.137420,0.045050,0.106327,0.071151,-0.005588,-0.046510,-0.033107,-0.002344,0.005125,-0.008102,-0.008981,0.016065,0.039372,0.023160,-0.026821,-0.060438,-0.035023,0.034523,0.078582,0.047087,-0.035830,-0.091569,-0.060763,0.029233,0.091112,0.066216,-0.020405,0.054726,0.071495,0.013275,-0.052134,-0.054140,0.008631,0.063546,0.045578,-0.029052,-0.081580,-0.049232,0.039726,0.093146,0.054520,-0.042275,-0.096899,-0.051924,0.044590,0.093810,0.039739,-0.059693,-0.095600,-0.024704,0.088190,0.119918,0.026421,0.119729,0.027894,-0.057641,-0.072526,-0.027829,0.016039,0.020234,0.002576,-0.000307,0.017805,0.025384,-0.000961,-0.040758,-0.047288,-0.000727,0.057114,0.064121,0.004247,-0.069782,-0.080942,-0.012568,0.071848,0.090796,0.023009,-0.064561,-0.086102},
	{-0.002247,0.010950,0.008205,0.004800,-0.005664,-0.012449,-0.008073,-0.001550,0.006246,0.005997,0.000674,-0.002525,-0.002762,0.004893,0.008050,0.002295,-0.002712,-0.005978,-0.007382,0.001603,0.003770,0.005405,0.006043,-0.000067,-0.000661,-0.004148,-0.005057,0.000130,0.007889,0.006213,0.006051,-0.004214,-0.005906,-0.008428,-0.006497,0.002138,0.008227,0.009046,0.004441,-0.000144,-0.006040,-0.005987,-0.001927,-0.000474,-0.002161,-0.001912,0.002827,0.001867,0.006834,0.001793,-0.005829,-0.007284,0.007323,0.007143,-0.003499,-0.012753,-0.009452,-0.002049,0.006480,0.009503,0.006345,-0.001578,-0.005019,0.000043,0.005130,0.002617,0.001330,-0.005724,-0.008286,-0.000924,0.003276,0.004611,0.008058,-0.001533,-0.002826,-0.004130,-0.007364,-0.002145,0.010136,0.008171,0.005866,-0.002092,-0.006724,-0.008513,-0.007216,0.002613,0.006886,0.008162,0.006030,-0.001902,-0.009186,-0.008126,-0.003252,0.000265,0.001057,0.000593,0.001803,0.001535,0.004478,0.003538,-0.004354,-0.005223,-0.006991,-0.002515},
	{0.057777,-0.019525,-0.068332,-0.038603,0.032317,0.062727,0.018143,-0.054128,-0.070850,-0.007487,0.071555,0.082839,0.006982,-0.080187,-0.087464,-0.007171,0.081509,0.084026,-0.002066,-0.084039,-0.074685,0.023278,0.104302,0.075901,-0.042528,-0.138559,-0.045362,-0.107191,-0.071753,0.005621,0.046891,0.033362,0.002348,-0.005175,0.008173,0.009071,-0.016199,-0.039707,-0.023355,0.027056,0.060965,0.035333,-0.034819,-0.079263,-0.047479,0.036124,0.092339,0.061260,-0.029505,-0.091871,-0.066742,0.020632,-0.055251,-0.072143,-0.013372,0.052623,0.054647,-0.008673,-0.064085,-0.045984,0.029257,0.082226,0.049627,-0.040071,-0.093904,-0.054940,0.042638,0.097733,0.052379,-0.044945,-0.094590,-0.040097,0.060130,0.096334,0.024872,-0.088900,-0.120851,-0.026553,-0.120755,-0.028167,0.058096,0.073110,0.028052,-0.016182,-0.020396,-0.002577,0.000317,-0.017951,-0.025599,0.000966,0.041109,0.047698,0.000731,-0.057614,-0.064674,-0.004294,0.070375,0.081629,0.012658,-0.072448,-0.091547,-0.023166,0.065141,0.086816},
	{0.150231,0.100719,0.008890,-0.083625,-0.134903,-0.127133,-0.067575,0.019892,0.098114,0.133477,0.113651,0.045715,-0.044962,-0.117367,-0.139312,-0.102380,-0.017865,0.078798,0.141095,0.142874,0.081060,-0.022985,-0.119539,-0.162857,-0.134136,-0.040160,0.176443,0.105184,-0.018317,-0.132905,-0.183272,-0.149504,-0.045078,0.080961,0.165132,0.171317,0.099898,-0.017111,-0.123164,-0.169469,-0.140163,-0.048880,0.064469,0.146489,0.161610,0.104816,-0.000689,-0.106012,-0.160166,-0.140323,-0.056843,0.052115,-0.021972,-0.110920,-0.145531,-0.116273,-0.039188,0.052770,0.118894,0.132980,0.092767,0.013428,-0.073221,-0.128327,-0.129359,-0.075704,0.014237,0.100704,0.143230,0.124965,0.050081,-0.052501,-0.133092,-0.155638,-0.109476,-0.008378,0.100845,0.164171,-0.050401,-0.152444,-0.182872,-0.129878,-0.013948,0.108871,0.177375,0.163413,0.074003,-0.050009,-0.146830,-0.173246,-0.122128,-0.016366,0.095237,0.160395,0.153497,0.078849,-0.032439,-0.128207,-0.163981,-0.125588,-0.029428,0.080424,0.149921,0.148567},
	{0.041167,0.071557,0.072656,0.041271,-0.005355,-0.043448,-0.060407,-0.056934,-0.040865,-0.018284,0.010902,0.045542,0.072901,0.073226,0.040349,-0.011198,-0.055249,-0.069196,-0.055593,-0.036947,-0.026685,-0.015288,0.018738,0.079205,0.137495,0.140706,-0.137434,-0.115047,-0.059637,-0.006434,0.027304,0.045267,0.054775,0.056715,0.047645,0.025864,-0.006406,-0.041198,-0.065030,-0.067482,-0.046165,-0.006445,0.036585,0.063917,0.065912,0.045183,0.012454,-0.019765,-0.043517,-0.056427,-0.056406,-0.038244,0.060490,0.023742,-0.025393,-0.063044,-0.072590,-0.052566,-0.017547,0.014909,0.038464,0.054444,0.060878,0.050020,0.017128,-0.030846,-0.072178,-0.081192,-0.054207,-0.012089,0.021357,0.036007,0.043414,0.060492,0.082563,0.077502,0.015379,-0.089483,-0.041559,0.041420,0.081046,0.082620,0.064171,0.040367,0.016974,-0.007665,-0.033950,-0.055786,-0.063366,-0.051764,-0.022126,0.018494,0.055047,0.071589,0.061522,0.028725,-0.012998,-0.045721,-0.059275,-0.054438,-0.036621,-0.009858,0.021899,0.051759},
	{-0.007501,0.003963,0.021084,0.021314,-0.006380,-0.040702,-0.044737,-0.002564,0.053994,0.068448,0.020086,-0.053453,-0.082814,-0.034378,0.045957,0.081121,0.034271,-0.048969,-0.078333,-0.019927,0.071415,0.096168,0.012487,-0.104638,-0.139943,-0.038757,-0.145250,-0.078002,0.031167,0.078600,0.040950,-0.021455,-0.039350,-0.000039,0.043765,0.039532,-0.010832,-0.057369,-0.052842,-0.003475,0.043763,0.049709,0.016131,-0.020102,-0.029028,-0.013054,0.005020,0.008835,0.002942,-0.000365,0.001422,0.000710,0.006716,0.014883,0.005601,-0.019694,-0.036337,-0.018278,0.028015,0.059729,0.040004,-0.023782,-0.075453,-0.060532,0.011461,0.075971,0.069383,-0.005482,-0.071888,-0.062487,0.016520,0.083151,0.058530,-0.039811,-0.116555,-0.081136,0.052472,0.160325,-0.007466,0.097582,0.096882,0.020059,-0.046517,-0.042246,0.009343,0.040932,0.016743,-0.036065,-0.057695,-0.023918,0.033200,0.060902,0.035984,-0.012990,-0.041168,-0.031008,-0.001139,0.017387,0.014003,0.001964,-0.003288,-0.000854,-0.000117,-0.003402},
	{-0.007792,-0.008494,-0.009332,-0.001779,-0.000182,0.009533,0.008205,-0.001991,-0.006316,-0.007778,-0.005523,0.003160,0.004781,0.011685,0.007362,0.003400,-0.002038,-0.002856,-0.000610,0.002554,-0.004512,-0.004212,-0.001038,0.003368,0.009523,0.010261,-0.009219,0.003802,0.015932,0.013013,0.001551,-0.002041,-0.003562,0.000604,0.005630,0.000490,-0.004761,-0.001367,-0.001797,0.004411,-0.000420,0.003844,0.001237,-0.000707,-0.005120,0.001476,0.001235,-0.003525,0.003056,0.002642,0.003803,0.003963,-0.003918,0.000245,0.003407,0.007247,0.008539,0.000135,-0.002280,-0.010436,-0.006025,0.003810,0.005139,0.008004,0.008958,-0.000538,-0.006534,-0.010355,-0.005388,0.001737,-0.000342,0.000485,0.002411,0.000718,0.010873,0.009638,0.002622,-0.008516,0.016002,0.016899,0.007062,-0.004883,-0.007505,-0.004147,-0.000114,0.003362,0.000155,0.003264,-0.003981,0.000499,0.001940,0.004823,0.003714,0.000690,-0.005678,-0.003364,-0.001286,0.001780,0.002426,0.000669,0.002227,0.000414,0.001595,-0.006953},
	{-0.046890,-0.068574,-0.036130,0.020815,0.054208,0.041781,0.000525,-0.033844,-0.036461,-0.012161,0.014464,0.025572,0.018370,0.002122,-0.012610,-0.021544,-0.020675,-0.005868,0.019150,0.039011,0.034074,-0.002662,-0.048276,-0.064718,-0.031045,0.035572,-0.065451,-0.028644,0.021374,0.045753,0.033094,0.001128,-0.024888,-0.029070,-0.013337,0.009388,0.025493,0.024826,0.005683,-0.021362,-0.038139,-0.027690,0.008999,0.046307,0.052688,0.016533,-0.039428,-0.069875,-0.046603,0.015041,0.067490,0.067594,-0.054400,0.004630,0.054372,0.057460,0.016832,-0.030880,-0.047284,-0.025441,0.010098,0.031038,0.025636,0.004300,-0.014225,-0.021312,-0.016765,-0.003764,0.013305,0.027734,0.027703,0.004650,-0.031167,-0.052603,-0.036019,0.016669,0.067186,0.071358,0.011921,0.052881,0.048837,0.012263,-0.025002,-0.036676,-0.020998,0.005341,0.024130,0.025057,0.009047,-0.013925,-0.030332,-0.026670,-0.000373,0.032531,0.046661,0.024930,-0.022821,-0.059943,-0.053244,-0.002535,0.055558,0.072958,0.032982,-0.032793},
	{0.049098,0.071809,0.037828,-0.021811,-0.056791,-0.043778,-0.000552,0.035479,0.038256,0.012793,-0.015139,-0.026834,-0.019335,-0.002278,0.013215,0.022621,0.021717,0.006160,-0.020083,-0.040881,-0.035668,0.002833,0.050600,0.067782,0.032446,-0.037332,0.068707,0.030120,-0.022367,-0.047971,-0.034724,-0.001190,0.026093,0.030457,0.013949,-0.009889,-0.026743,-0.026011,-0.005910,0.022446,0.040009,0.029027,-0.009452,-0.048565,-0.055253,-0.017352,0.041304,0.073216,0.048849,-0.015729,-0.070679,-0.070790,0.056963,-0.004848,-0.056942,-0.060180,-0.017623,0.032365,0.049566,0.026686,-0.010567,-0.032550,-0.026936,-0.004567,0.014894,0.022380,0.017649,0.003980,-0.013954,-0.029090,-0.029037,-0.004855,0.032671,0.055102,0.037675,-0.017525,-0.070427,-0.074752,-0.012439,-0.055455,-0.051262,-0.012907,0.026195,0.038442,0.022007,-0.005627,-0.025305,-0.026250,-0.009438,0.014652,0.031824,0.027949,0.000354,-0.034143,-0.048940,-0.026144,0.023919,0.062832,0.055823,0.002687,-0.058190,-0.076425,-0.034566,0.034330},
	{0.007612,0.004350,-0.005035,-0.008659,-0.008191,-0.005495,0.002942,0.005912,0.007083,0.005244,0.001033,-0.000962,-0.002872,-0.004488,-0.004248,-0.000209,0.004313,0.003147,0.000605,0.001763,-0.002709,0.002015,0.005202,0.008165,-0.000778,-0.009071,0.003759,0.004953,0.004378,-0.002842,0.002478,0.002083,-0.002622,-0.001923,-0.000055,0.000213,0.000062,0.003118,-0.001001,-0.002159,0.001089,0.001124,0.000183,-0.001002,-0.000824,-0.000258,0.001529,-0.000140,-0.000577,-0.003337,-0.003184,-0.000080,-0.002086,-0.008256,-0.007118,-0.006868,0.005257,0.007479,0.008902,0.006953,-0.002035,-0.002392,-0.005294,-0.004139,-0.005252,0.000897,0.002977,0.007409,0.002201,0.001091,-0.006259,0.001050,0.000355,-0.000093,0.001349,-0.004946,-0.009642,-0.004515,0.007938,-0.000068,0.001190,-0.001743,-0.003547,-0.001434,-0.002197,-0.001816,0.002547,0.001277,-0.000847,-0.001121,0.000963,-0.000595,0.000325,-0.000057,-0.000883,-0.001719,0.000250,0.000895,0.001016,-0.000918,-0.002529,-0.000772,0.002735,0.006513},
	{-0.078200,-0.178220,-0.174382,-0.065532,0.076332,0.162942,0.151247,0.056839,-0.056913,-0.122659,-0.115171,-0.051135,0.029002,0.079965,0.080585,0.040752,-0.012455,-0.045594,-0.041791,-0.013724,0.011790,0.012973,-0.007411,-0.023738,-0.014027,0.021076,0.039267,-0.011068,-0.080034,-0.124595,-0.101753,-0.006517,0.114937,0.179438,0.133541,0.002663,-0.133297,-0.188316,-0.129703,-0.005394,0.106293,0.151015,0.119025,0.041767,-0.040543,-0.103467,-0.130526,-0.105559,-0.026814,0.079122,0.160369,0.160090,-0.172944,-0.067156,0.078983,0.174873,0.166078,0.061197,-0.068820,-0.144510,-0.133395,-0.053658,0.042682,0.100439,0.097706,0.047517,-0.018464,-0.061910,-0.062424,-0.029479,0.010755,0.029655,0.018165,-0.004917,-0.013430,0.004462,0.032375,0.039869,-0.067342,-0.090792,-0.072538,-0.001122,0.097124,0.155991,0.122759,0.005982,-0.128564,-0.190743,-0.134800,-0.001006,0.126041,0.173684,0.122891,0.018793,-0.076316,-0.125847,-0.121314,-0.072149,0.004451,0.087502,0.144811,0.136546,0.049659,-0.077032},
	{0.002500,0.005943,0.003053,0.005930,0.001409,-0.007493,-0.008122,-0.004263,0.000926,0.008860,0.009905,0.004660,-0.000479,-0.003092,-0.008404,-0.004942,0.000814,0.000931,-0.000411,0.008199,0.004098,0.004242,0.000314,-0.008100,-0.005837,-0.003717,0.003250,-0.001484,-0.000568,-0.000118,-0.006056,-0.005224,-0.006272,-0.003705,0.009691,0.005441,0.006232,0.004864,-0.004876,-0.006470,-0.008226,-0.003194,-0.004221,-0.003867,-0.001167,0.005592,0.006866,0.002150,0.001568,-0.005091,-0.006479,-0.005950,0.004568,0.004814,0.001042,-0.006554,-0.007887,-0.004360,0.002420,0.010981,0.008672,0.004431,0.000814,-0.007775,-0.008030,-0.004043,0.000586,0.002689,0.005358,0.006132,-0.000448,0.001179,-0.001004,-0.005958,-0.004817,-0.003322,0.000352,0.010376,-0.005082,-0.001423,-0.004188,-0.003680,-0.002557,-0.004552,0.007738,0.006876,0.005787,0.003177,-0.007222,-0.007647,-0.006496,-0.002381,0.000328,-0.000783,0.002820,0.002124,0.006470,0.004486,0.001854,-0.007385,-0.004777,-0.006226,-0.000266,0.002914},
	{-0.009596,-0.012905,-0.009769,0.002380,0.010981,0.012371,0.010091,-0.002700,-0.013703,-0.016098,-0.007281,0.008183,0.016113,0.008868,0.001046,-0.008119,-0.007679,-0.002247,0.002979,0.002295,-0.002400,-0.005838,-0.002177,0.005878,0.016923,0.011248,-0.014308,-0.010514,-0.002492,0.004896,0.008066,0.007091,-0.001466,-0.006271,-0.005805,0.000792,0.005487,0.004813,-0.001444,-0.009274,-0.007894,0.001075,0.008757,0.013258,0.006456,-0.005613,-0.014814,-0.015163,-0.002766,0.008893,0.016130,0.012699,-0.010266,0.000704,0.012057,0.011565,0.009192,-0.002933,-0.011492,-0.014215,-0.009395,0.005588,0.015898,0.013931,0.005060,-0.009646,-0.013607,-0.004823,0.002734,0.004520,0.002186,-0.001927,-0.004534,0.000296,0.008282,0.008592,-0.000406,-0.014573,0.000413,0.005055,0.010678,0.008879,0.002018,-0.006399,-0.006662,-0.002946,0.003172,0.005805,0.002808,-0.005344,-0.006764,-0.001315,0.006026,0.012089,0.007689,-0.003320,-0.012644,-0.014151,-0.004916,0.006521,0.015658,0.014765,0.001773,-0.010031},
	{0.001579,0.005491,0.006509,0.001153,-0.000540,-0.003763,-0.004204,-0.000791,-0.000256,0.001572,0.003182,0.000470,0.000753,-0.000464,-0.001428,0.001302,-0.002049,-0.000059,0.001725,-0.000439,-0.001089,-0.002497,-0.002157,0.000196,0.000730,0.004707,-0.008467,-0.009287,-0.002769,0.004129,0.006670,0.002376,0.000520,-0.001660,-0.005069,-0.002786,0.000498,-0.001362,0.003231,0.003925,0.000773,-0.000575,-0.001903,-0.003397,-0.001399,0.002143,0.005619,0.005403,0.000759,-0.003118,-0.005754,-0.004724,0.005502,0.000397,-0.002170,-0.003412,-0.005372,-0.001545,-0.001478,0.002389,0.003582,0.000721,-0.000500,0.000270,-0.002897,-0.001243,-0.000597,-0.000295,0.000486,-0.000381,0.002312,-0.000549,-0.001001,-0.000584,0.000307,0.002613,0.003719,0.001220,-0.002169,0.003895,0.007600,0.005943,0.001432,-0.002554,-0.006536,-0.002500,0.000860,0.000780,0.004191,0.003489,-0.000096,-0.000918,-0.003158,-0.003110,-0.001725,0.001728,0.003268,0.003195,0.001634,-0.002123,-0.005981,-0.004364,-0.002369,0.003414},
	{-0.006304,-0.018187,-0.010826,0.006181,0.014494,0.012876,-0.009347,-0.016613,-0.015706,0.003506,0.023918,0.022857,0.011536,-0.012186,-0.023967,-0.020999,-0.006802,0.000136,0.008694,0.016994,0.016060,0.009889,-0.002625,-0.018085,-0.015810,-0.017301,-0.012044,-0.005415,0.002055,0.006773,0.008432,-0.002315,-0.005811,-0.002674,-0.000536,-0.007383,-0.012718,-0.006730,0.007015,0.022299,0.015527,-0.002261,-0.015031,-0.013840,0.004259,0.015097,0.011962,-0.003453,-0.017376,-0.011602,0.006189,0.020640,-0.017869,-0.002673,0.011322,0.017694,0.000361,-0.012566,-0.016150,-0.006454,0.018958,0.019434,0.015462,-0.009841,-0.027995,-0.023956,-0.008323,0.006527,0.015436,0.016361,0.010827,0.005602,-0.002483,-0.020530,-0.019313,-0.014321,0.007316,0.014826,-0.002213,0.003934,0.009884,0.000918,-0.005112,-0.008333,-0.003170,0.002344,-0.003579,-0.004592,0.002433,0.018002,0.017174,0.004872,-0.012654,-0.018752,-0.008301,0.011859,0.014878,0.006536,-0.013932,-0.015582,-0.005864,0.015045,0.016176,0.003445},
	{0.000251,0.001256,0.007495,0.011672,0.008003,-0.002919,-0.018743,-0.015161,-0.004649,0.004815,0.013782,0.005758,-0.003579,-0.003012,0.000010,0.001535,0.005695,-0.003346,-0.003455,-0.003171,0.003791,0.008136,-0.005029,-0.014743,-0.004468,0.008708,-0.004439,0.002272,-0.001096,0.002672,-0.013052,-0.009307,-0.004206,0.003793,0.012646,0.016463,0.011497,0.001864,0.000810,-0.014868,-0.009799,-0.015971,-0.004327,0.008736,0.018734,0.017335,0.002872,-0.004833,-0.016324,-0.006325,-0.006769,-0.001266,0.008119,0.011006,0.008825,-0.008434,-0.012669,-0.020052,-0.004251,0.007547,0.015628,0.011238,0.004043,-0.005535,-0.006949,0.001397,0.000984,0.000994,0.001360,-0.004279,0.001037,0.009878,-0.001499,-0.008166,-0.003079,-0.001315,0.019205,0.010936,-0.008387,-0.002828,0.002877,-0.011159,-0.006868,0.004325,0.014725,0.013232,0.014293,0.000291,-0.011421,-0.012000,-0.008493,-0.004219,-0.004642,0.008740,0.022987,0.020600,0.002750,-0.008341,-0.022819,-0.009076,-0.005292,0.002821,0.004568,0.002896},
	{-0.067212,0.022109,0.097773,0.105931,0.040741,-0.051051,-0.109646,-0.096905,-0.020568,0.067800,0.113857,0.091695,0.013120,-0.073338,-0.115996,-0.093413,-0.016715,0.070805,0.116891,0.099161,0.027798,-0.060145,-0.113962,-0.106989,-0.045793,0.040874,0.003243,-0.104818,-0.151018,-0.105636,-0.002549,0.095439,0.134126,0.094170,0.007138,-0.073739,-0.109515,-0.086476,-0.021069,0.050107,0.093520,0.088665,0.034779,-0.040299,-0.093862,-0.093206,-0.033201,0.051467,0.103704,0.087452,0.010988,-0.075632,0.087753,0.109078,0.053923,-0.037852,-0.105029,-0.101447,-0.029246,0.061041,0.112304,0.093433,0.015220,-0.071726,-0.114989,-0.091799,-0.013807,0.073003,0.116757,0.096009,0.021428,-0.066590,-0.116003,-0.102746,-0.035891,0.051445,0.111002,0.112274,-0.152863,-0.108581,-0.002915,0.101813,0.144475,0.100254,0.003622,-0.085754,-0.121729,-0.089154,-0.013237,0.061141,0.099612,0.086519,0.028950,-0.042680,-0.091773,-0.091489,-0.036610,0.043433,0.098435,0.092194,0.024360,-0.062875,-0.107930,-0.078867},
	{0.000410,-0.009842,-0.013968,-0.014289,-0.006635,0.010488,0.013403,0.012732,0.004350,-0.010004,-0.009600,-0.007555,0.003519,0.006694,0.003110,-0.001941,-0.005675,-0.001084,0.005818,0.007917,0.003505,-0.004210,-0.008525,-0.007522,-0.001706,0.004167,-0.010394,-0.010405,-0.004774,0.000400,0.003191,0.007165,0.006764,0.005818,0.006584,-0.004203,-0.009694,-0.012035,-0.013841,0.003381,0.011958,0.014827,0.015150,-0.002510,-0.012023,-0.013735,-0.013456,-0.000310,0.010155,0.010130,0.010796,0.009707,-0.012639,-0.012739,-0.004924,0.010135,0.014092,0.014134,0.006316,-0.010506,-0.011947,-0.010471,-0.000508,0.008701,0.006565,0.003396,-0.005496,-0.004139,0.001307,0.005993,0.004922,-0.002062,-0.008542,-0.008061,-0.002311,0.004316,0.007517,0.006536,-0.003838,0.003350,0.007745,0.008899,0.005675,0.002391,0.001691,-0.005614,-0.008082,-0.009251,-0.010870,0.003380,0.011180,0.013991,0.015155,-0.003337,-0.012039,-0.014673,-0.014470,0.001544,0.012338,0.012229,0.012115,0.004949,-0.001551,-0.005701},
	{-0.003356,-0.001560,0.006024,0.014701,0.003665,-0.000421,-0.005179,-0.015365,-0.008113,-0.001360,0.002665,0.009311,0.012465,0.005660,-0.000725,-0.006851,-0.012296,-0.008756,-0.001281,0.001646,0.007501,0.007769,0.000167,0.001787,0.004657,0.000634,-0.001496,0.001917,0.004048,0.000452,-0.000134,-0.000338,0.001217,-0.002415,0.001206,-0.002127,0.002680,0.002342,0.000858,0.002498,-0.004754,-0.002028,-0.002977,0.004025,0.001912,0.003938,-0.004185,-0.005208,0.006761,0.002060,0.005607,-0.001768,0.004680,0.011831,0.003265,0.000129,-0.006024,-0.018116,-0.005121,0.000032,0.003969,0.011478,0.011021,0.003482,-0.001538,-0.008132,-0.012849,-0.007422,-0.000153,0.004630,0.010664,0.009344,0.001013,0.000684,-0.002231,-0.003147,-0.002086,-0.004747,0.006482,0.005738,-0.000683,-0.000913,-0.001180,0.000010,0.000834,-0.000950,-0.000243,0.003013,-0.000528,0.003042,-0.004542,-0.001759,-0.002562,0.000503,0.003951,0.003191,-0.000229,-0.005970,0.001966,-0.000738,0.006150,0.002079,-0.009803,-0.003255},
	{0.003304,-0.010452,-0.011397,-0.001465,0.009121,0.015250,0.009627,0.001221,-0.010227,-0.012158,0.003530,0.011925,0.013386,0.000032,-0.016289,-0.018265,-0.006885,0.007582,0.013432,0.015739,0.002819,-0.005404,-0.014623,-0.009659,-0.003187,0.002180,-0.001528,0.000819,-0.000042,0.007761,0.005957,0.003968,-0.008416,-0.016229,-0.010942,-0.005470,0.010481,0.014352,0.011907,-0.002961,-0.007020,-0.003961,-0.006688,0.002103,0.006686,-0.001516,-0.000888,-0.003123,-0.002333,0.001474,0.001828,0.006209,-0.008277,-0.006446,0.007088,0.015383,0.011677,0.001702,-0.008679,-0.014086,-0.008374,0.009782,0.010117,0.006043,-0.011999,-0.015566,-0.009744,0.004784,0.015039,0.018438,0.003287,-0.006633,-0.019649,-0.008796,-0.002776,0.005107,0.011894,0.007004,0.001189,0.005741,0.006705,-0.000007,-0.003907,-0.011649,-0.009681,-0.003084,0.006545,0.011616,0.015712,0.000902,-0.007255,-0.012926,-0.008039,0.002934,0.002256,-0.000599,-0.001267,0.001210,-0.000229,-0.003986,0.001223,0.004798,0.008410,-0.000222},
